DATE: 2025-04-10 UNITS: metal CONTRIBUTOR: Xiaowang Zhou xzhou@sandia.gov, Lucas Hale lucas.hale@nist.gov, and Germain Clavier g.m.g.c.clavier@tue.nl/germain.clavier@gmail.com
 CITATION: X. W. Zhou, R. A. Johnson, H. N. G. Wadley, Phys. Rev. B, 69, 144113(2004)
Generated by create_eam.py
2     Cu Nb                   
2000  5.9225420094040013e-02   2000  3.1971968861076662e-03   6.3911965753292250e+00  
   29        63.54600         3.61496      fcc
   0.0000000000000000E+00  -1.6066035479582741E-02  -3.2055556190898504E-02  -4.7968736892142205E-02  -6.3805752341508981E-02
  -7.9566777297194302E-02  -9.5251986517394416E-02  -1.1086155476030402E-01  -1.2639565678411857E-01  -1.4185446734703300E-01
  -1.5723816120724354E-01  -1.7254691312294490E-01  -1.8778089785233232E-01  -2.0294029015360215E-01  -2.1802526478494921E-01
  -2.3303599650456885E-01  -2.4797266007065621E-01  -2.6283543024140721E-01  -2.7762448177501697E-01  -2.9233998942968098E-01
  -3.0698212796359414E-01  -3.2155107213495182E-01  -3.3604699670195048E-01  -3.5047007642278460E-01  -3.6482048605564965E-01
  -3.7909840035874109E-01  -3.9330399409025474E-01  -4.0743744200838561E-01  -4.2149891887132818E-01  -4.3548859943727913E-01
  -4.4940665846443373E-01  -4.6325327071098721E-01  -4.7702861093513393E-01  -4.9073285389507104E-01  -5.0436617434899256E-01
  -5.1792874705509429E-01  -5.3142074677157181E-01  -5.4484234825661981E-01  -5.5819372626843478E-01  -5.7147505556521150E-01
  -5.8468651090514556E-01  -5.9782826704643188E-01  -6.1090049874726626E-01  -6.2390338076584317E-01  -6.3683708786035942E-01
  -6.4970179478901002E-01  -6.6249767630998968E-01  -6.7522490718149464E-01  -6.8788366216171926E-01  -7.0047411600885989E-01
  -7.1299644348111135E-01  -7.2545081933666888E-01  -7.3783741833372840E-01  -7.5015641523048515E-01  -7.6240798478513461E-01
  -7.7459230175587113E-01  -7.8670954090089140E-01  -7.9875987697839057E-01  -8.1074348474656355E-01  -8.2266053896360603E-01
  -8.3451121438771336E-01  -8.4629568577708048E-01  -8.5801412788990361E-01  -8.6966671548437735E-01  -8.8125362331869772E-01
  -8.9277502615105975E-01  -9.0423109873965934E-01  -9.1562201584269076E-01  -9.2694795221835014E-01  -9.3820908262483305E-01
  -9.4940558182033419E-01  -9.6053762456304914E-01  -9.7160538561117404E-01  -9.8260903972290370E-01  -9.9354876165643335E-01
  -1.0044247261699586E+00  -1.0152371080216744E+00  -1.0259860819697770E+00  -1.0366718227724612E+00  -1.0472945051879221E+00
  -1.0578543039743560E+00  -1.0683513938899578E+00  -1.0787859496929224E+00  -1.0891581461414457E+00  -1.0994681579937229E+00
  -1.1097161600079497E+00  -1.1199023269423209E+00  -1.1300268335550323E+00  -1.1400898546042795E+00  -1.1500915648482573E+00
  -1.1600321390451618E+00  -1.1699117519531874E+00  -1.1797305783305303E+00  -1.1894887929353855E+00  -1.1991865705259488E+00
  -1.2088240858604151E+00  -1.2184015136969801E+00  -1.2279190287938389E+00  -1.2373768059091872E+00  -1.2467750198012200E+00
  -1.2561138452281331E+00  -1.2653934569481216E+00  -1.2746140297193809E+00  -1.2837757383001063E+00  -1.2928787574484935E+00
  -1.3019232619227377E+00  -1.3109094264810341E+00  -1.3198374258815788E+00  -1.3287074348825665E+00  -1.3375196282421924E+00
  -1.3462741807186522E+00  -1.3549712670701419E+00  -1.3636110620548554E+00  -1.3721937404309899E+00  -1.3807194769567392E+00
  -1.3891884463902997E+00  -1.3976008234898665E+00  -1.4059567830136348E+00  -1.4142564997197999E+00  -1.4225001483665578E+00
  -1.4306879037121030E+00  -1.4388199405146307E+00  -1.4468964335323375E+00  -1.4549175575234186E+00  -1.4628834872460685E+00
  -1.4707943974584834E+00  -1.4786504629188584E+00  -1.4864518583853887E+00  -1.4941987586162693E+00  -1.5018913383696966E+00
  -1.5095297724038654E+00  -1.5171142354769711E+00  -1.5246449023472093E+00  -1.5321219477727752E+00  -1.5395455465118641E+00
  -1.5469158733226716E+00  -1.5542331029633929E+00  -1.5614974101922230E+00  -1.5687089697673580E+00  -1.5758679564469933E+00
  -1.5829745449893238E+00  -1.5900289101525451E+00  -1.5970312266948525E+00  -1.6039816693744413E+00  -1.6108804129495073E+00
  -1.6177276321782454E+00  -1.6245235018188517E+00  -1.6312681966295206E+00  -1.6379618913684482E+00  -1.6446047607938294E+00
  -1.6511969796638599E+00  -1.6577387227367351E+00  -1.6642301647706497E+00  -1.6706714805238003E+00  -1.6770628447543816E+00
  -1.6834044322205886E+00  -1.6896964176806177E+00  -1.6959389758926633E+00  -1.7021322816149216E+00  -1.7082765096055865E+00
  -1.7143718346228554E+00  -1.7204184314249225E+00  -1.7264164747699837E+00  -1.7323661394162337E+00  -1.7382676001218687E+00
  -1.7441210316450830E+00  -1.7499266087440732E+00  -1.7556845061770334E+00  -1.7613948987021604E+00  -1.7670579610776487E+00
  -1.7726738680616938E+00  -1.7782427944124912E+00  -1.7837649148882362E+00  -1.7892404042471244E+00  -1.7946694372473508E+00
  -1.8000521886471113E+00  -1.8053888332046000E+00  -1.8106795456780140E+00  -1.8159245008255478E+00  -1.8211238734053969E+00
  -1.8262778381757570E+00  -1.8313865698948228E+00  -1.8364502433207903E+00  -1.8414690332118540E+00  -1.8464431143262103E+00
  -1.8513726614220545E+00  -1.8562578492575814E+00  -1.8610988525909868E+00  -1.8658958461804660E+00  -1.8706490047842141E+00
  -1.8753585031604270E+00  -1.8800245160672993E+00  -1.8846472182630269E+00  -1.8892267845058055E+00  -1.8937633895538304E+00
  -1.8982572081652964E+00  -1.9027084150983991E+00  -1.9071171851113342E+00  -1.9114836929622969E+00  -1.9158081134094822E+00
  -1.9200906212110860E+00  -1.9243313911253037E+00  -1.9285305979103304E+00  -1.9326884163243616E+00  -1.9368050211255927E+00
  -1.9408805870722188E+00  -1.9449152889224355E+00  -1.9489093014344385E+00  -1.9528627993664227E+00  -1.9567759574765839E+00
  -1.9606489505231175E+00  -1.9644819532642182E+00  -1.9682751404580818E+00  -1.9720286868629040E+00  -1.9757427672368797E+00
  -1.9794175563382042E+00  -1.9830532289250733E+00  -1.9866499597556824E+00  -1.9902079235882271E+00  -1.9937272951809017E+00
  -1.9972082492919025E+00  -2.0006509606794252E+00  -2.0040556041016635E+00  -2.0074223543168150E+00  -2.0107513860830730E+00
  -2.0140428741586347E+00  -2.0172969933016947E+00  -2.0205139182704479E+00  -2.0236938238230908E+00  -2.0268368847178180E+00
  -2.0299432757128240E+00  -2.0330131715663060E+00  -2.0360467470364583E+00  -2.0390441768814771E+00  -2.0420056358595571E+00
  -2.0449312987288937E+00  -2.0478213402476819E+00  -2.0506759351741182E+00  -2.0534952582663966E+00  -2.0562794842827139E+00
  -2.0590287879812648E+00  -2.0617433441202446E+00  -2.0644233274578490E+00  -2.0670689127522728E+00  -2.0696802747617120E+00
  -2.0722575882443621E+00  -2.0748010279584168E+00  -2.0773107686620742E+00  -2.0797869851135280E+00  -2.0822298520709737E+00
  -2.0846395442926067E+00  -2.0870162365366225E+00  -2.0893601035612170E+00  -2.0916713201245845E+00  -2.0939500609849211E+00
  -2.0961965009004224E+00  -2.0984108146292830E+00  -2.1005931769296993E+00  -2.1027437625598657E+00  -2.1048627462779788E+00
  -2.1069503028422321E+00  -2.1090066070108220E+00  -2.1110318335419445E+00  -2.1130261571937945E+00  -2.1149897527245671E+00
  -2.1169227948924578E+00  -2.1188254584556625E+00  -2.1206979181723757E+00  -2.1225403488007935E+00  -2.1243529250991107E+00
  -2.1261358218255233E+00  -2.1278892137382259E+00  -2.1296132755954149E+00  -2.1313081821552848E+00  -2.1329741081760321E+00
  -2.1346112284158503E+00  -2.1362197176329367E+00  -2.1377997505854855E+00  -2.1393515020316927E+00  -2.1408751467297531E+00
  -2.1423708594378628E+00  -2.1438388149142167E+00  -2.1452791879170099E+00  -2.1466921532044387E+00  -2.1480778855346978E+00
  -2.1494365596659821E+00  -2.1507683503564885E+00  -2.1520734323644111E+00  -2.1533519804479457E+00  -2.1546041693652880E+00
  -2.1558301738746328E+00  -2.1570301687341757E+00  -2.1582043287021122E+00  -2.1593528285366368E+00  -2.1604758429959467E+00
  -2.1615735468382362E+00  -2.1626461148217007E+00  -2.1636937217045351E+00  -2.1647165422449359E+00  -2.1657147512010977E+00
  -2.1666885233312163E+00  -2.1676380333934859E+00  -2.1685634561461038E+00  -2.1694649663472640E+00  -2.1703430557211432E+00
  -2.1711972875297025E+00  -2.1720282406255564E+00  -2.1728361907451541E+00  -2.1736214136249452E+00  -2.1743841850013803E+00
  -2.1751247806109082E+00  -2.1758434761899794E+00  -2.1765405474750432E+00  -2.1772162702025502E+00  -2.1778709201089494E+00
  -2.1785047729306903E+00  -2.1791181044042238E+00  -2.1797111902659991E+00  -2.1802843062524659E+00  -2.1808377281000744E+00
  -2.1813717315452732E+00  -2.1818865923245143E+00  -2.1823825861742452E+00  -2.1828599888309173E+00  -2.1833190760309793E+00
  -2.1837601235108819E+00  -2.1841834070070743E+00  -2.1845892022560065E+00  -2.1849777849941283E+00  -2.1853494309578898E+00
  -2.1857044158837398E+00  -2.1860430155081287E+00  -2.1863655055675069E+00  -2.1866721617983238E+00  -2.1869632599370283E+00
  -2.1872390757200715E+00  -2.1874998848839025E+00  -2.1877459631649709E+00  -2.1879775862997271E+00  -2.1881950300246209E+00
  -2.1883985700761017E+00  -2.1885884821906192E+00  -2.1887650421046230E+00  -2.1889285255545636E+00  -2.1890792082768908E+00
  -2.1892173660080538E+00  -2.1893432744845032E+00  -2.1894572094426876E+00  -2.1895594466190573E+00  -2.1896502617500633E+00
  -2.1897299305721534E+00  -2.1897987288217786E+00  -2.1898569322353887E+00  -2.1899048165494328E+00  -2.1899426575003615E+00
  -2.1899707308246241E+00  -2.1899893122586707E+00  -2.1899986775389504E+00  -2.1899991024019139E+00  -2.1899908625840103E+00
  -2.1899742338216899E+00  -2.1899494918514026E+00  -2.1899169124095974E+00  -2.1898767712327252E+00  -2.1898293440572343E+00
  -2.1897749066195762E+00  -2.1897137346561997E+00  -2.1896461039035544E+00  -2.1895722900980905E+00  -2.1894925689762581E+00
  -2.1894072162745064E+00  -2.1893165077292855E+00  -2.1892207190770452E+00  -2.1891201260542350E+00  -2.1890150043973056E+00
  -2.1889056298427052E+00  -2.1887922781268849E+00  -2.1886752249862940E+00  -2.1885547461573829E+00  -2.1884311173766000E+00
  -2.1883046143803968E+00  -2.1881755129052221E+00  -2.1880440886875259E+00  -2.1879106174637579E+00  -2.1877753749703679E+00
  -2.1876386369438054E+00  -2.1875006791205216E+00  -2.1873617772369642E+00  -2.1872222070295848E+00  -2.1870822442348317E+00
  -2.1869421645891562E+00  -2.1868022438290073E+00  -2.1866627576908342E+00  -2.1865239819110878E+00  -2.1863861922262173E+00
  -2.1862496643726725E+00  -2.1861146740869031E+00  -2.1859814971053595E+00  -2.1858504091644910E+00  -2.1857216860007473E+00
  -2.1855956033505790E+00  -2.1854724369504348E+00  -2.1853524625367649E+00  -2.1852359558460193E+00  -2.1851231926146477E+00
  -2.1850144485790999E+00  -2.1849099994758259E+00  -2.1848101210412745E+00  -2.1847150890118967E+00  -2.1846251791241418E+00
  -2.1845406671144598E+00  -2.1844618287193001E+00  -2.1843861701992129E+00  -2.1843097821187536E+00  -2.1842322301201853E+00
  -2.1841535210957761E+00  -2.1840736618844447E+00  -2.1839926592722896E+00  -2.1839105199931099E+00  -2.1838272507289216E+00
  -2.1837428581104694E+00  -2.1836573487177287E+00  -2.1835707290804045E+00  -2.1834830056784229E+00  -2.1833941849424159E+00
  -2.1833042732542025E+00  -2.1832132769472632E+00  -2.1831212023072086E+00  -2.1830280555722408E+00  -2.1829338429336138E+00
  -2.1828385705360827E+00  -2.1827422444783529E+00  -2.1826448708135193E+00  -2.1825464555495055E+00  -2.1824470046494926E+00
  -2.1823465240323463E+00  -2.1822450195730378E+00  -2.1821424971030607E+00  -2.1820389624108412E+00  -2.1819344212421470E+00
  -2.1818288793004861E+00  -2.1817223422475069E+00  -2.1816148157033890E+00  -2.1815063052472321E+00  -2.1813968164174411E+00
  -2.1812863547121020E+00  -2.1811749255893607E+00  -2.1810625344677903E+00  -2.1809491867267621E+00  -2.1808348877068027E+00
  -2.1807196427099540E+00  -2.1806034570001325E+00  -2.1804863358034692E+00  -2.1803682843086651E+00  -2.1802493076673297E+00
  -2.1801294109943194E+00  -2.1800085993680729E+00  -2.1798868778309424E+00  -2.1797642513895190E+00  -2.1796407250149601E+00
  -2.1795163036433043E+00  -2.1793909921757941E+00  -2.1792647954791824E+00  -2.1791377183860474E+00  -2.1790097656950969E+00
  -2.1788809421714683E+00  -2.1787512525470341E+00  -2.1786207015206913E+00  -2.1784892937586595E+00  -2.1783570338947684E+00
  -2.1782239265307450E+00  -2.1780899762364965E+00  -2.1779551875503929E+00  -2.1778195649795404E+00  -2.1776831130000609E+00
  -2.1775458360573574E+00  -2.1774077385663895E+00  -2.1772688249119327E+00  -2.1771290994488464E+00  -2.1769885665023301E+00
  -2.1768472303681823E+00  -2.1767050953130562E+00  -2.1765621655747092E+00  -2.1764184453622524E+00  -2.1762739388564007E+00
  -2.1761286502097117E+00  -2.1759825835468294E+00  -2.1758357429647242E+00  -2.1756881325329265E+00  -2.1755397562937628E+00
  -2.1753906182625875E+00  -2.1752407224280090E+00  -2.1750900727521194E+00  -2.1749386731707170E+00  -2.1747865275935290E+00
  -2.1746336399044304E+00  -2.1744800139616638E+00  -2.1743256535980500E+00  -2.1741705626212062E+00  -2.1740147448137521E+00
  -2.1738582039335226E+00  -2.1737009437137709E+00  -2.1735429678633742E+00  -2.1733842800670380E+00  -2.1732248839854922E+00
  -2.1730647832556929E+00  -2.1729039814910158E+00  -2.1727424822814538E+00  -2.1725802891938053E+00  -2.1724174057718688E+00
  -2.1722538355366261E+00  -2.1720895819864343E+00  -2.1719246485972068E+00  -2.1717590388225974E+00  -2.1715927560941806E+00
  -2.1714258038216325E+00  -2.1712581853929058E+00  -2.1710899041744081E+00  -2.1709209635111719E+00  -2.1707513667270324E+00
  -2.1705811171247920E+00  -2.1704102179863942E+00  -2.1702386725730878E+00  -2.1700664841255928E+00  -2.1698936558642647E+00
  -2.1697201909892581E+00  -2.1695460926806835E+00  -2.1693713640987728E+00  -2.1691960083840303E+00  -2.1690200286573917E+00
  -2.1688434280203799E+00  -2.1686662095552576E+00  -2.1684883763251754E+00  -2.1683099313743273E+00  -2.1681308777280957E+00
  -2.1679512183931999E+00  -2.1677709563578409E+00  -2.1675900945918496E+00  -2.1674086360468241E+00  -2.1672265836562756E+00
  -2.1670439403357684E+00  -2.1668607089830565E+00  -2.1666768924782240E+00  -2.1664924936838217E+00  -2.1663075154449998E+00
  -2.1661219605896429E+00  -2.1659358319285027E+00  -2.1657491322553306E+00  -2.1655618643470058E+00  -2.1653740309636653E+00
  -2.1651856348488323E+00  -2.1649966787295405E+00  -2.1648071653164616E+00  -2.1646170973040291E+00  -2.1644264773705588E+00
  -2.1642353081783767E+00  -2.1640435923739325E+00  -2.1638513325879241E+00  -2.1636585314354142E+00  -2.1634651915159493E+00
  -2.1632713154136733E+00  -2.1630769056974470E+00  -2.1628819649209574E+00  -2.1626864956228355E+00  -2.1624905003267649E+00
  -2.1622939815415956E+00  -2.1620969417614524E+00  -2.1618993834658458E+00  -2.1617013091197776E+00  -2.1615027211738513E+00
  -2.1613036220643749E+00  -2.1611040142134690E+00  -2.1609039000291697E+00  -2.1607032819055316E+00  -2.1605021622227327E+00
  -2.1603005433471738E+00  -2.1600984276315769E+00  -2.1598958174150917E+00  -2.1596927150233864E+00  -2.1594891227687523E+00
  -2.1592850429501982E+00  -2.1590804778535442E+00  -2.1588754297515220E+00  -2.1586699009038659E+00  -2.1584638935574079E+00
  -2.1582574099461702E+00  -2.1580504522914570E+00  -2.1578430228019463E+00  -2.1576351236737810E+00  -2.1574267570906560E+00
  -2.1572179252239114E+00  -2.1570086302326157E+00  -2.1567988742636564E+00  -2.1565886594518258E+00  -2.1563779879199072E+00
  -2.1561668617787584E+00  -2.1559552831273989E+00  -2.1557432540530899E+00  -2.1555307766314202E+00  -2.1553178529263883E+00
  -2.1551044849904808E+00  -2.1548906748647574E+00  -2.1546764245789278E+00  -2.1544617361514322E+00  -2.1542466115895214E+00
  -2.1540310528893323E+00  -2.1538150620359673E+00  -2.1535986410035695E+00  -2.1533817917554017E+00  -2.1531645162439164E+00
  -2.1529468164108372E+00  -2.1527286941872283E+00  -2.1525101514935705E+00  -2.1522911902398318E+00  -2.1520718123255422E+00
  -2.1518520196398638E+00  -2.1516318140616635E+00  -2.1514111974595820E+00  -2.1511901716921029E+00  -2.1509687386076246E+00
  -2.1507469000445285E+00  -2.1505246578312458E+00  -2.1503020137863258E+00  -2.1500789697185030E+00  -2.1498555274267641E+00
  -2.1496316887004143E+00  -2.1494074553191402E+00  -2.1491828290530774E+00  -2.1489578116628754E+00  -2.1487324048997571E+00
  -2.1485066105055877E+00  -2.1482804302129326E+00  -2.1480538657451249E+00  -2.1478269188163197E+00  -2.1475995911315642E+00
  -2.1473718843868514E+00  -2.1471438002691841E+00  -2.1469153404566326E+00  -2.1466865066183969E+00  -2.1464573004148617E+00
  -2.1462277234976570E+00  -2.1459977775097174E+00  -2.1457674640853357E+00  -2.1455367848502225E+00  -2.1453057414215628E+00
  -2.1450743354080708E+00  -2.1448425684100458E+00  -2.1446104420194279E+00  -2.1443779578198523E+00  -2.1441451173867039E+00
  -2.1439119222871703E+00  -2.1436783740802960E+00  -2.1434444743170364E+00  -2.1432102245403066E+00  -2.1429756262850383E+00
  -2.1427406810782283E+00  -2.1425053904389912E+00  -2.1422697558786106E+00  -2.1420337789005872E+00  -2.1417974610006931E+00
  -2.1415608036670166E+00  -2.1413238083800161E+00  -2.1410864766125672E+00  -2.1408488098300094E+00  -2.1406108094901977E+00
  -2.1403724770435475E+00  -2.1401338139330841E+00  -2.1398948215944897E+00  -2.1396555014561485E+00  -2.1394158549391937E+00
  -2.1391758834575549E+00  -2.1389355884180019E+00  -2.1386949712201910E+00  -2.1384540332567088E+00  -2.1382127759131198E+00
  -2.1379712005680065E+00  -2.1377293085930158E+00  -2.1374871013529027E+00  -2.1372445802055733E+00  -2.1370017465021260E+00
  -2.1367586015868971E+00  -2.1365151467975005E+00  -2.1362713834648708E+00  -2.1360273129133045E+00  -2.1357829364605032E+00
  -2.1355382554176097E+00  -2.1352932710892558E+00  -2.1350479847735948E+00  -2.1348023977623498E+00  -2.1345565113408465E+00
  -2.1343103267880563E+00  -2.1340638453766339E+00  -2.1338170683729594E+00  -2.1335699970371707E+00  -2.1333226326232086E+00
  -2.1330749763788508E+00  -2.1328270295457501E+00  -2.1325787933594729E+00  -2.1323302690495365E+00  -2.1320814578394436E+00
  -2.1318323609467220E+00  -2.1315829795829599E+00  -2.1313333149538414E+00  -2.1310833682591817E+00  -2.1308331406929648E+00
  -2.1305826334433782E+00  -2.1303318476928452E+00  -2.1300807846180638E+00  -2.1298294453900386E+00  -2.1295778311741151E+00
  -2.1293259431300164E+00  -2.1290737824118735E+00  -2.1288213501682591E+00  -2.1285686475422243E+00  -2.1283156756713284E+00
  -2.1280624356876734E+00  -2.1278089287179340E+00  -2.1275551558833943E+00  -2.1273011182999766E+00  -2.1270468170782730E+00
  -2.1267922533235790E+00  -2.1265374281359239E+00  -2.1262823426101018E+00  -2.1260269978357038E+00  -2.1257713948971468E+00
  -2.1255155348737054E+00  -2.1252594188395415E+00  -2.1250030478637347E+00  -2.1247464230103130E+00  -2.1244895453382804E+00
  -2.1242324159016484E+00  -2.1239750357494627E+00  -2.1237174059258379E+00  -2.1234595274699766E+00  -2.1232014014162082E+00
  -2.1229430287940110E+00  -2.1226844106280423E+00  -2.1224255479381675E+00  -2.1221664417394841E+00  -2.1219070930423549E+00
  -2.1216475028524311E+00  -2.1213876721706804E+00  -2.1211276019934160E+00  -2.1208672933123207E+00  -2.1206067471144752E+00
  -2.1203459643823854E+00  -2.1200849460940057E+00  -2.1198236932227674E+00  -2.1195622067376059E+00  -2.1193004876029820E+00
  -2.1190385367789126E+00  -2.1187763552209922E+00  -2.1185139438804201E+00  -2.1182513037040245E+00  -2.1179884356342886E+00
  -2.1177253406093741E+00  -2.1174620195631459E+00  -2.1171984734251965E+00  -2.1169347031208705E+00  -2.1166707095712893E+00
  -2.1164064936933737E+00  -2.1161420563998679E+00  -2.1158773985993622E+00  -2.1156125211963190E+00  -2.1153474250910929E+00
  -2.1150821111799565E+00  -2.1148165803551215E+00  -2.1145508335047620E+00  -2.1142848715130365E+00  -2.1140186952601114E+00
  -2.1137523056221834E+00  -2.1134857034714991E+00  -2.1132188896763817E+00  -2.1129518651012469E+00  -2.1126846306066294E+00
  -2.1124171870492034E+00  -2.1121495352818012E+00  -2.1118816761534389E+00  -2.1116136105093339E+00  -2.1113453391909274E+00
  -2.1110768630359047E+00  -2.1108081828782170E+00  -2.1105392995481007E+00  -2.1102702138720981E+00  -2.1100009266730781E+00
  -2.1097314387702553E+00  -2.1094617509792126E+00  -2.1091918641119176E+00  -2.1089217789767445E+00  -2.1086514963784939E+00
  -2.1083810171184099E+00  -2.1081103419942036E+00  -2.1078394718000681E+00  -2.1075684073267000E+00  -2.1072971493613180E+00
  -2.1070256986876803E+00  -2.1067540560861073E+00  -2.1064822223334949E+00  -2.1062101982033363E+00  -2.1059379844657404E+00
  -2.1056655818874477E+00  -2.1053929912318523E+00  -2.1051202132590157E+00  -2.1048472487256866E+00  -2.1045740983853207E+00
  -2.1043007629880939E+00  -2.1040272432809233E+00  -2.1037535400074843E+00  -2.1034796539082268E+00  -2.1032055857203913E+00
  -2.1029313361780297E+00  -2.1026569060120197E+00  -2.1023822959500809E+00  -2.1021075067167940E+00  -2.1018325390336154E+00
  -2.1015573936188954E+00  -2.1012820711878932E+00  -2.1010065724527940E+00  -2.1007308981227251E+00  -2.1004550489037719E+00
  -2.1001790254989943E+00  -2.0999028286084429E+00  -2.0996264589291727E+00  -2.0993499171552616E+00  -2.0990732039778255E+00
  -2.0987963200850319E+00  -2.0985192661621173E+00  -2.0982420428914019E+00  -2.0979646509523042E+00  -2.0976870910213572E+00
  -2.0974093637722233E+00  -2.0971314698757082E+00  -2.0968534099997762E+00  -2.0965751848095673E+00  -2.0962967949674072E+00
  -2.0960182411328261E+00  -2.0957395239625711E+00  -2.0954606441106205E+00  -2.0951816022281999E+00  -2.0949023989637938E+00
  -2.0946230349631625E+00  -2.0943435108693533E+00  -2.0940638273227168E+00  -2.0937839849609201E+00  -2.0935039844189594E+00
  -2.0932238263291754E+00  -2.0929435113212658E+00  -2.0926630400222992E+00  -2.0923824130567286E+00  -2.0921016310464049E+00
  -2.0918206946105884E+00  -2.0915396043659658E+00  -2.0912583609266595E+00  -2.0909769649042436E+00  -2.0906954169077525E+00
  -2.0904137175437012E+00  -2.0901318674160887E+00  -2.0898498671264196E+00  -2.0895677172737095E+00  -2.0892854184545042E+00
  -2.0890029712628846E+00  -2.0887203762904880E+00  -2.0884376341265116E+00  -2.0881547453577323E+00  -2.0878717105685118E+00
  -2.0875885303408155E+00  -2.0873052052542209E+00  -2.0870217358859278E+00  -2.0867381228107749E+00  -2.0864543666012487E+00
  -2.0861704678274950E+00  -2.0858864270573316E+00  -2.0856022448562599E+00  -2.0853179217874755E+00  -2.0850334584118810E+00
  -2.0847488552880966E+00  -2.0844641129724715E+00  -2.0841792320190944E+00  -2.0838942129798061E+00  -2.0836090564042107E+00
  -2.0833237628396852E+00  -2.0830383328313915E+00  -2.0827527669222867E+00  -2.0824670656531352E+00  -2.0821812295625173E+00
  -2.0818952591868434E+00  -2.0816091550603604E+00  -2.0813229177151658E+00  -2.0810365476812165E+00  -2.0807500454863406E+00
  -2.0804634116562450E+00  -2.0801766467145297E+00  -2.0798897511826944E+00  -2.0796027255801524E+00  -2.0793155704242370E+00
  -2.0790282862302147E+00  -2.0787408735112929E+00  -2.0784533327786323E+00  -2.0781656645413542E+00  -2.0778778693065534E+00
  -2.0775899475793045E+00  -2.0773018998626749E+00  -2.0770137266577318E+00  -2.0767254284635546E+00  -2.0764370057772421E+00
  -2.0761484590939241E+00  -2.0758597889067696E+00  -2.0755709957069945E+00  -2.0752820799838756E+00  -2.0749930422247558E+00
  -2.0747038829150553E+00  -2.0744146025382797E+00  -2.0741252015760314E+00  -2.0738356805080156E+00  -2.0735460398120509E+00
  -2.0732562799640788E+00  -2.0729664014381735E+00  -2.0726764047065460E+00  -2.0723862902395593E+00  -2.0720960585057346E+00
  -2.0718057099717568E+00  -2.0715152451024887E+00  -2.0712246643609773E+00  -2.0709339682084598E+00  -2.0706431571043766E+00
  -2.0703522315063774E+00  -2.0700611918703293E+00  -2.0697700386503275E+00  -2.0694787722986998E+00  -2.0691873932660192E+00
  -2.0688959020011093E+00  -2.0686042989510534E+00  -2.0683125845612023E+00  -2.0680207592751843E+00  -2.0677288235349098E+00
  -2.0674367777805829E+00  -2.0671446224507064E+00  -2.0668523579820928E+00  -2.0665599848098677E+00  -2.0662675033674849E+00
  -2.0659749140867252E+00  -2.0656822173977121E+00  -2.0653894137289135E+00  -2.0650965035071551E+00  -2.0648034871576217E+00
  -2.0645103651038714E+00  -2.0642171377678378E+00  -2.0639238055698397E+00  -2.0636303689285889E+00  -2.0633368282611966E+00
  -2.0630431839831829E+00  -2.0627494365084802E+00  -2.0624555862494458E+00  -2.0621616336168631E+00  -2.0618675790199545E+00
  -2.0615734228663847E+00  -2.0612791655622700E+00  -2.0609848075121833E+00  -2.0606903491191657E+00  -2.0603957907847259E+00
  -2.0601011329088554E+00  -2.0598063758900289E+00  -2.0595115201252154E+00  -2.0592165660098836E+00  -2.0589215139380088E+00
  -2.0586263643020795E+00  -2.0583311174931036E+00  -2.0580357739006172E+00  -2.0577403339126894E+00  -2.0574447979159287E+00
  -2.0571491662954919E+00  -2.0568534394350886E+00  -2.0565576177169875E+00  -2.0562617015220246E+00  -2.0559656912296096E+00
  -2.0556695872177295E+00  -2.0553733898629583E+00  -2.0550770995404628E+00  -2.0547807166240073E+00  -2.0544842414859601E+00
  -2.0541876744973036E+00  -2.0538910160276340E+00  -2.0535942664451721E+00  -2.0532974261167687E+00  -2.0530004954079111E+00
  -2.0527034746827271E+00  -2.0524063643039931E+00  -2.0521091646331393E+00  -2.0518118760302553E+00  -2.0515144988540976E+00
  -2.0512170334620943E+00  -2.0509194802103519E+00  -2.0506218394536582E+00  -2.0503241115454935E+00  -2.0500262968380309E+00
  -2.0497283956821462E+00  -2.0494304084274213E+00  -2.0491323354221516E+00  -2.0488341770133487E+00  -2.0485359335467508E+00
  -2.0482376053668232E+00  -2.0479391928167683E+00  -2.0476406962385267E+00  -2.0473421159727891E+00  -2.0470434523589938E+00
  -2.0467447057353385E+00  -2.0464458764387849E+00  -2.0461469648050588E+00  -2.0458479711686648E+00  -2.0455488958628805E+00
  -2.0452497392197722E+00  -2.0449505015701943E+00  -2.0446511832437957E+00  -2.0443517845690260E+00  -2.0440523058731395E+00
  -2.0437527474822006E+00  -2.0434531097210908E+00  -2.0431533929135122E+00  -2.0428535973819901E+00  -2.0425537234478850E+00
  -2.0422537714313909E+00  -2.0419537416515432E+00  -2.0416536344262242E+00  -2.0413534500721675E+00  -2.0410531889049612E+00
  -2.0407528512390556E+00  -2.0404524373877679E+00  -2.0401519476632837E+00  -2.0398513823766673E+00  -2.0395507418378607E+00
  -2.0392500263556927E+00  -2.0389492362378832E+00  -2.0386483717910435E+00  -2.0383474333206899E+00  -2.0380464211312375E+00
  -2.0377453355260147E+00  -2.0374441768072615E+00  -2.0371429452761363E+00  -2.0368416412327210E+00  -2.0365402649760247E+00
  -2.0362388168039893E+00  -2.0359372970134930E+00  -2.0356357059003551E+00  -2.0353340437593399E+00  -2.0350323108841630E+00
  -2.0347305075674949E+00  -2.0344286341009634E+00  -2.0341266907751616E+00  -2.0338246778796503E+00  -2.0335225957029608E+00
  -2.0332204445326028E+00  -2.0329182246550661E+00  -2.0326159363558265E+00  -2.0323135799193475E+00  -2.0320111556290890E+00
  -2.0317086637675055E+00  -2.0314061046160568E+00  -2.0311034784552082E+00  -2.0308007855644341E+00  -2.0304980262222250E+00
  -2.0301952007060899E+00  -2.0298923092925611E+00  -2.0295893522571968E+00  -2.0292863298745885E+00  -2.0289832424183594E+00
  -2.0286800901611755E+00  -2.0283768733747429E+00  -2.0280735923298177E+00  -2.0277702472962043E+00  -2.0274668385427645E+00
  -2.0271633663374180E+00  -2.0268598309471479E+00  -2.0265562326380033E+00  -2.0262525716751050E+00  -2.0259488483226473E+00
  -2.0256450628439033E+00  -2.0253412155012289E+00  -2.0250373065560652E+00  -2.0247333362689428E+00  -2.0244293048994866E+00
  -2.0241252127064184E+00  -2.0238210599475610E+00  -2.0235168468798412E+00  -2.0232125737592952E+00  -2.0229082408410708E+00
  -2.0226038483794309E+00  -2.0222993966277585E+00  -2.0219948858385588E+00  -2.0216903162634638E+00  -2.0213856881532366E+00
  -2.0210810017577718E+00  -2.0207762573261019E+00  -2.0204714551064011E+00  -2.0201665953459869E+00  -2.0198616782913250E+00
  -2.0195567041880320E+00  -2.0192516732808787E+00  -2.0189465858137940E+00  -2.0186414420298697E+00  -2.0183362421713600E+00
  -2.0180309864796890E+00  -2.0177256751954533E+00  -2.0174203085584224E+00  -2.0171148868075450E+00  -2.0168094101809513E+00
  -2.0165038789159579E+00  -2.0161982932490679E+00  -2.0158926534159756E+00  -2.0155869596515723E+00  -2.0152812121899455E+00
  -2.0149754112643836E+00  -2.0146695571073820E+00  -2.0143636499506417E+00  -2.0140576900250746E+00  -2.0137516775608066E+00
  -2.0134456127871831E+00  -2.0131394959327666E+00  -2.0128333272253447E+00  -2.0125271068919317E+00  -2.0122208351587703E+00
  -2.0119145122513364E+00  -2.0116081383943443E+00  -2.0113017138117435E+00  -2.0109952387267258E+00  -2.0106887133617306E+00
  -2.0103821379384423E+00  -2.0100755126777985E+00  -2.0097688377999883E+00  -2.0094621135244597E+00  -2.0091553400699191E+00
  -2.0088485176543363E+00  -2.0085416464949466E+00  -2.0082347268082534E+00  -2.0079277588100330E+00  -2.0076207427153347E+00
  -2.0073136787384849E+00  -2.0070065670930899E+00  -2.0066994079920408E+00  -2.0063922016475115E+00  -2.0060849482709666E+00
  -2.0057776480731611E+00  -2.0054703012641446E+00  -2.0051629080532631E+00  -2.0048554686491626E+00  -2.0045479832597914E+00
  -2.0042404520924020E+00  -2.0039328753535566E+00  -2.0036252532491265E+00  -2.0033175859842962E+00  -2.0030098737635682E+00
  -2.0027021167907604E+00  -2.0023943152690142E+00  -2.0020864694007940E+00  -2.0017785793878913E+00  -2.0014706454314268E+00
  -2.0011626677318524E+00  -2.0008546464889547E+00  -2.0005465819018569E+00  -2.0002384741690227E+00  -1.9999303234882568E+00
  -1.9996221300567096E+00  -1.9993138940708775E+00  -1.9990056157266072E+00  -1.9986972952190980E+00  -1.9983889327429036E+00
  -1.9980805284919354E+00  -1.9977720826594634E+00  -1.9974635954381206E+00  -1.9971550670199039E+00  -1.9968464975961795E+00
  -1.9965378873576798E+00  -1.9962292364945118E+00  -1.9959205451961557E+00  -1.9956118136514684E+00  -1.9953030420486866E+00
  -1.9949942305754282E+00  -1.9946853794186945E+00  -1.9943764887648741E+00  -1.9940675587997432E+00  -1.9937585897084695E+00
  -1.9934495816756141E+00  -1.9931405348851337E+00  -1.9928314495203823E+00  -1.9925223257641145E+00  -1.9922131637984872E+00
  -1.9919039638050626E+00  -1.9915947259648090E+00  -1.9912854504581055E+00  -1.9909761374647414E+00  -1.9906667871639190E+00
  -1.9903573997342594E+00  -1.9900479753537992E+00  -1.9897385141999961E+00  -1.9894290164497315E+00  -1.9891194822793103E+00
  -1.9888099118644647E+00  -1.9885003053803565E+00  -1.9881906630015773E+00  -1.9878809849021553E+00  -1.9875712712555493E+00
  -1.9872615222346615E+00  -1.9869517380118289E+00  -1.9866419187588340E+00  -1.9863320646469009E+00  -1.9860221758467003E+00
  -1.9857122525283524E+00  -1.9854022948614267E+00  -1.9850923030149443E+00  -1.9847822771573822E+00  -1.9844722174566718E+00
  -1.9841621240802050E+00  -1.9838519971948330E+00  -1.9835418369668694E+00  -1.9832316435620927E+00  -1.9829214171457481E+00
  -1.9826111578825480E+00  -1.9823008659366772E+00  -1.9819905414717909E+00  -1.9816801846510197E+00  -1.9813697956369707E+00
  -1.9810593745917291E+00  -1.9807489216768597E+00  -1.9804384370534101E+00  -1.9801279208819120E+00  -1.9798173733223823E+00
  -1.9795067945343265E+00  -1.9791961846767403E+00  -1.9788855439081090E+00  -1.9785748723864147E+00  -1.9782641702691315E+00
  -1.9779534377132324E+00  -1.9776426748751903E+00  -1.9773318819109769E+00  -1.9770210589760688E+00  -1.9767102062254462E+00
  -1.9763993238135960E+00  -1.9760884118945130E+00  -1.9757774706217022E+00  -1.9754665001481815E+00  -1.9751555006264803E+00
  -1.9748444722086447E+00  -1.9745334150462386E+00  -1.9742223292903442E+00  -1.9739112150915643E+00  -1.9736000726000238E+00
  -1.9732889019653732E+00  -1.9729777033367875E+00  -1.9726664768629705E+00  -1.9723552226921546E+00  -1.9720439409721033E+00
  -1.9717326318501143E+00  -1.9714212954730181E+00  -1.9711099319871819E+00  -1.9707985415385114E+00  -1.9704871242724518E+00
  -1.9701756803339883E+00  -1.9698642098676515E+00  -1.9695527130175132E+00  -1.9692411899271949E+00  -1.9689296407398638E+00
  -1.9686180655982368E+00  -1.9683064646445827E+00  -1.9679948380207226E+00  -1.9676831858680313E+00  -1.9673715083274410E+00
  -1.9670598055394404E+00  -1.9667480776440780E+00  -1.9664363247809611E+00  -1.9661245470892637E+00  -1.9658127447077189E+00
  -1.9655009177746279E+00  -1.9651890664278584E+00  -1.9648771908048466E+00  -1.9645652910425977E+00  -1.9642533672776910E+00
  -1.9639414196462777E+00  -1.9636294482840830E+00  -1.9633174533264093E+00  -1.9630054349081369E+00  -1.9626933931637243E+00
  -1.9623813282272113E+00  -1.9620692402322215E+00  -1.9617571293119582E+00  -1.9614449955992157E+00  -1.9611328392263694E+00
  -1.9608206603253864E+00  -1.9605084590278226E+00  -1.9601962354648241E+00  -1.9598839897671310E+00  -1.9595717220650759E+00
  -1.9592594324885884E+00  -1.9589471211671932E+00  -1.9586347882300141E+00  -1.9583224338057761E+00  -1.9580100580228028E+00
  -1.9576976610090218E+00  -1.9573852428919647E+00  -1.9570728037987681E+00  -1.9567603438561743E+00  -1.9564478631905360E+00
  -1.9561353619278137E+00  -1.9558228401935787E+00  -1.9555102981130157E+00  -1.9551977358109229E+00  -1.9548851534117120E+00
  -1.9545725510394125E+00  -1.9542599288176705E+00  -1.9539472868697521E+00  -1.9536346253185430E+00  -1.9533219442865513E+00
  -1.9530092438959075E+00  -1.9526965242683660E+00  -1.9523837855253072E+00  -1.9520710277877393E+00  -1.9517582511762988E+00
  -1.9514454558112491E+00  -1.9511326418124879E+00  -1.9508198092995426E+00  -1.9505069583915746E+00  -1.9501940892073810E+00
  -1.9498812018653930E+00  -1.9495682964836811E+00  -1.9492553731799525E+00  -1.9489424320715547E+00  -1.9486294732754763E+00
  -1.9483164969083493E+00  -1.9480035030864460E+00  -1.9476904919256866E+00  -1.9473774635416354E+00  -1.9470644180495047E+00
  -1.9467513555641554E+00  -1.9464382762000954E+00  -1.9461251800714880E+00  -1.9458120672921440E+00  -1.9454989379755303E+00
  -1.9451857922347668E+00  -1.9448726301826302E+00  -1.9445594519315514E+00  -1.9442462575936224E+00  -1.9439330472805929E+00
  -1.9436198211038722E+00  -1.9433065791745323E+00  -1.9429933216033066E+00  -1.9426800485005937E+00  -1.9423667599764565E+00
  -1.9420534561406229E+00  -1.9417401371024894E+00  -1.9414268029711210E+00  -1.9411134538552512E+00  -1.9408000898632842E+00
  -1.9404867111032968E+00  -1.9401733176830380E+00  -1.9398599097099309E+00  -1.9395464872910744E+00  -1.9392330505332414E+00
  -1.9389195995428854E+00  -1.9386061344261352E+00  -1.9382926552888007E+00  -1.9379791622363727E+00  -1.9376656553740228E+00
  -1.9373521348066056E+00  -1.9370386006386597E+00  -1.9367250529744080E+00  -1.9364114919177604E+00  -1.9360979175723128E+00
  -1.9357843300413500E+00  -1.9354707294278453E+00  -1.9351571158344625E+00  -1.9348434893635567E+00  -1.9345298501171755E+00
  -1.9342161981970585E+00  -1.9339025337046418E+00  -1.9335888567410555E+00  -1.9332751674071258E+00  -1.9329614658033774E+00
  -1.9326477520300329E+00  -1.9323340261870143E+00  -1.9320202883739444E+00  -1.9317065386901464E+00  -1.9313927772346478E+00
  -1.9310790041061783E+00  -1.9307652194031728E+00  -1.9304514232237702E+00  -1.9301376156658181E+00  -1.9298237968268694E+00
  -1.9295099668041871E+00  -1.9291961256947425E+00  -1.9288822735952174E+00  -1.9285684106020053E+00  -1.9282545368112116E+00
  -1.9279406523186562E+00  -1.9276267572198698E+00  -1.9273128516101032E+00  -1.9269989355843191E+00  -1.9266850092371994E+00
  -1.9263710726631440E+00  -1.9260571259562695E+00  -1.9257431692104157E+00  -1.9254292025191404E+00  -1.9251152259757256E+00
  -1.9248012396731726E+00  -1.9244872437042100E+00  -1.9241732381612877E+00  -1.9238592231365836E+00  -1.9235451987219994E+00
  -1.9232311650091660E+00  -1.9229171220894417E+00  -1.9226030700539141E+00  -1.9222890089933986E+00  -1.9219749389984453E+00
  -1.9216608601593328E+00  -1.9213467725660724E+00  -1.9210326763084113E+00  -1.9207185714758284E+00  -1.9204044581575392E+00
  -1.9200903364424944E+00  -1.9197762064193822E+00  -1.9194620681766286E+00  -1.9191479218023979E+00  -1.9188337673845934E+00
  -1.9185196050108611E+00  -1.9182054347685855E+00  -1.9178912567448940E+00  -1.9175770710266578E+00  -1.9172628777004908E+00
  -1.9169486768527513E+00  -1.9166344685695440E+00  -1.9163202529367198E+00  -1.9160060300398754E+00  -1.9156917999643570E+00
  -1.9153775627952585E+00  -1.9150633186174233E+00  -1.9147490675154459E+00  -1.9144348095736707E+00  -1.9141205448761969E+00
  -1.9138062735068719E+00  -1.9134919955493006E+00  -1.9131777110868413E+00  -1.9128634202026058E+00  -1.9125491229794647E+00
  -1.9122348195000431E+00  -1.9119205098467245E+00  -1.9116061941016507E+00  -1.9112918723467223E+00  -1.9109775446636006E+00
  -1.9106632111337067E+00  -1.9103488718382236E+00  -1.9100345268580960E+00  -1.9097201762740330E+00  -1.9094058201665058E+00
  -1.9090914586157506E+00  -1.9087770917017697E+00  -1.9084627195043304E+00  -1.9081483421029672E+00  -1.9078339595769820E+00
  -1.9075195720054452E+00  -1.9072051794671958E+00  -1.9068907820408441E+00  -1.9065763798047684E+00  -1.9062619728371197E+00
  -1.9059475612158203E+00  -1.9056331450185671E+00  -1.9053187243228278E+00  -1.9050042992058465E+00  -1.9046898697446399E+00
  -1.9043754360160030E+00  -1.9040609980965046E+00  -1.9037465560624918E+00  -1.9034321099900899E+00  -1.9031176599552009E+00
  -1.9028032060335087E+00  -1.9024887483004738E+00  -1.9021742868313392E+00  -1.9018598217011298E+00  -1.9015453529846509E+00
  -1.9012308807564908E+00  -1.9009164050910223E+00  -1.9006019260624010E+00  -1.9002874437445672E+00  -1.8999729582112472E+00
  -1.8996584695359529E+00  -1.8993439777919836E+00  -1.8990294830524259E+00  -1.8987149853901537E+00  -1.8984004848778302E+00
  -1.8980859815879090E+00  -1.8977714755926316E+00  -1.8974569669640320E+00  -1.8971424557739369E+00  -1.8968279420939609E+00
  -1.8965134259955163E+00  -1.8961989075498042E+00  -1.8958843868278230E+00  -1.8955698639003653E+00  -1.8952553388380173E+00
  -1.8949408117111632E+00  -1.8946262825899824E+00  -1.8943117515444532E+00  -1.8939972186443499E+00  -1.8936826839592471E+00
  -1.8933681475585173E+00  -1.8930536095113337E+00  -1.8927390698866682E+00  -1.8924245287532973E+00  -1.8921099861797952E+00
  -1.8917954422345409E+00  -1.8914808969857155E+00  -1.8911663505013037E+00  -1.8908518028490948E+00  -1.8905372540966818E+00
  -1.8902227043114643E+00  -1.8899081535606479E+00  -1.8895936019112434E+00  -1.8892790494300695E+00  -1.8889644961837537E+00
  -1.8886499422387308E+00  -1.8883353876612443E+00  -1.8880208325173482E+00  -1.8877062768729069E+00  -1.8873917207935933E+00
  -1.8870771643448958E+00  -1.8867626075921100E+00  -1.8864480506003476E+00  -1.8861334934345320E+00  -1.8858189361594000E+00
  -1.8855043788395034E+00  -1.8851898215392087E+00  -1.8848752643226967E+00  -1.8845607072539661E+00  -1.8842461503968306E+00
  -1.8839315938149219E+00  -1.8836170375716890E+00  -1.8833024817303989E+00  -1.8829879263541389E+00  -1.8826733715058128E+00
  -1.8823588172481474E+00  -1.8820442636436880E+00  -1.8817297107548012E+00  -1.8814151586436763E+00  -1.8811006073723235E+00
  -1.8807860570025767E+00  -1.8804715075960923E+00  -1.8801569592143497E+00  -1.8798424119186541E+00  -1.8795278657701358E+00
  -1.8792133208297486E+00  -1.8788987771582739E+00  -1.8785842348163189E+00  -1.8782696938643175E+00  -1.8779551543625319E+00
  -1.8776406163710524E+00  -1.8773260799497957E+00  -1.8770115451585114E+00  -1.8766970120567750E+00  -1.8763824807039946E+00
  -1.8760679511594081E+00  -1.8757534234820836E+00  -1.8754388977309231E+00  -1.8751243739646588E+00  -1.8748098522418573E+00
  -1.8744953326209159E+00  -1.8741808151600687E+00  -1.8738662999173821E+00  -1.8735517869507579E+00  -1.8732372763179319E+00
  -1.8729227680764780E+00  -1.8726082622838052E+00  -1.8722937589971578E+00  -1.8719792582736194E+00  -1.8716647601701102E+00
  -1.8713502647433888E+00  -1.8710357720500539E+00  -1.8707212821465409E+00  -1.8704067950891268E+00  -1.8700923109339276E+00
  -1.8697778297369008E+00  -1.8694633515538450E+00  -1.8691488764403994E+00  -1.8688344044520468E+00  -1.8685199356441111E+00
  -1.8682054700717603E+00  -1.8678910077900053E+00  -1.8675765488537017E+00  -1.8672620933175488E+00  -1.8669476412360912E+00
  -1.8666331926637190E+00  -1.8663187476546668E+00  -1.8660043062630183E+00  -1.8656898685427021E+00  -1.8653754345474931E+00
  -1.8650610043310163E+00  -1.8647465779467438E+00  -1.8644321554479948E+00  -1.8641177368879409E+00  -1.8638033223195996E+00
  -1.8634889117958409E+00  -1.8631745053693840E+00  -1.8628601030928007E+00  -1.8625457050185101E+00  -1.8622313111987880E+00
  -1.8619169216857590E+00  -1.8616025365314024E+00  -1.8612881557875489E+00  -1.8609737795058834E+00  -1.8606594077379448E+00
  -1.8603450405351274E+00  -1.8600306779486786E+00  -1.8597163200297011E+00  -1.8594019668291548E+00  -1.8590876183978551E+00
  -1.8587732747864734E+00  -1.8584589360455379E+00  -1.8581446022254362E+00  -1.8578302733764112E+00  -1.8575159495485642E+00
  -1.8572016307918584E+00  -1.8568873171561120E+00  -1.8565730086910046E+00  -1.8562587054460760E+00  -1.8559444074707259E+00
  -1.8556301148142142E+00  -1.8553158275256629E+00  -1.8550015456540552E+00  -1.8546872692482359E+00  -1.8543729983569133E+00
  -1.8540587330286564E+00  -1.8537444733118995E+00  -1.8534302192549401E+00  -1.8531159709059388E+00  -1.8528017283129208E+00
  -1.8524874915237775E+00  -1.8521732605862633E+00  -1.8518590355479996E+00  -1.8515448164564743E+00  -1.8512306033590396E+00
  -1.8509163963029167E+00  -1.8506021953351928E+00  -1.8502880005028226E+00  -1.8499738118526299E+00  -1.8496596294313050E+00
  -1.8493454532854086E+00  -1.8490312834613698E+00  -1.8487171200054870E+00  -1.8484029629639285E+00  -1.8480888123827337E+00
  -1.8477746683078109E+00  -1.8474605307849419E+00  -1.8471463998597772E+00  -1.8468322755778417E+00  -1.8465181579845298E+00
  -1.8462040471251107E+00  -1.8458899430447249E+00  -1.8455758457883868E+00  -1.8452617554009851E+00  -1.8449476719272817E+00
  -1.8446335954119115E+00  -1.8443195258993872E+00  -1.8440054634340943E+00  -1.8436914080602949E+00  -1.8433773598221257E+00
  -1.8430633187636010E+00  -1.8427492849286107E+00  -1.8424352583609218E+00  -1.8421212391041788E+00  -1.8418072272019037E+00
  -1.8414932226974963E+00  -1.8411792256342350E+00  -1.8408652360552769E+00  -1.8405512540036568E+00  -1.8402372795222917E+00
  -1.8399233126539747E+00  -1.8396093534413829E+00  -1.8392954019270706E+00  -1.8389814581534742E+00  -1.8386675221629116E+00
  -1.8383535939975815E+00  -1.8380396736995637E+00  -1.8377257613108229E+00  -1.8374118568732023E+00  -1.8370979604284312E+00
  -1.8367840720181208E+00  -1.8364701916837649E+00  -1.8361563194667434E+00  -1.8358424554083175E+00  -1.8355285995496362E+00
  -1.8352147519317299E+00  -1.8349009125955160E+00  -1.8345870815817988E+00  -1.8342732589312640E+00  -1.8339594446844893E+00
  -1.8336456388819338E+00  -1.8333318415639457E+00  -1.8330180527707607E+00  -1.8327042725425005E+00  -1.8323905009191757E+00
  -1.8320767379406842E+00  -1.8317629836468134E+00  -1.8314492380772391E+00  -1.8311355012715236E+00  -1.8308217732691234E+00
  -1.8305080541093803E+00  -1.8301943438315287E+00  -1.8298806424746921E+00  -1.8295669500778846E+00  -1.8292532666800125E+00
  -1.8289395923198717E+00  -1.8286259270361505E+00  -1.8283122708674291E+00  -1.8279986238521793E+00  -1.8276849860287661E+00
  -1.8273713574354473E+00  -1.8270577381103736E+00  -1.8267441280915879E+00  -1.8264305274170285E+00  -1.8261169361245271E+00
  -1.8258033542518097E+00  -1.8254897818364964E+00  -1.8251762189161027E+00  -1.8248626655280400E+00  -1.8245491217096135E+00
  -1.8242355874980254E+00  -1.8239220629303736E+00  -1.8236085480436535E+00  -1.8232950428747543E+00  -1.8229815474604658E+00
  -1.8226680618374722E+00  -1.8223545860423569E+00  -1.8220411201115994E+00  -1.8217276640815796E+00  -1.8214142179885748E+00
  -1.8211007818687597E+00  -1.8207873557582102E+00  -1.8204739396928997E+00  -1.8201605337087030E+00  -1.8198471378413927E+00
  -1.8195337521266419E+00  -1.8192203766000259E+00  -1.8189070112970185E+00  -1.8185936562529965E+00  -1.8182803115032351E+00
  -1.8179669770829143E+00  -1.8176536530271126E+00  -1.8173403393708139E+00  -1.8170270361489023E+00  -1.8167137433961646E+00
  -1.8164004611472904E+00  -1.8160871894368749E+00  -1.8157739282994134E+00  -1.8154606777693056E+00  -1.8151474378808583E+00
  -1.8148342086682776E+00  -1.8145209901656778E+00  -1.8142077824070770E+00  -1.8138945854263975E+00  -1.8135813992574676E+00
  -1.8132682239340223E+00  -1.8129550594896993E+00  -1.8126419059580452E+00  -1.8123287633725125E+00  -1.8120156317664597E+00
  -1.8117025111731531E+00  -1.8113894016257643E+00  -1.8110763031573736E+00  -1.8107632158009692E+00  -1.8104501395894470E+00
  -1.8101370745556111E+00  -1.8098240207321727E+00  -1.8095109781517542E+00  -1.8091979468468840E+00  -1.8088849268500022E+00
  -1.8085719181934579E+00  -1.8082589209095077E+00  -1.8079459350303213E+00  -1.8076329605879773E+00  -1.8073199976144629E+00
  -1.8070070461416794E+00  -1.8066941062014354E+00  -1.8063811778254542E+00  -1.8060682610453684E+00  -1.8057553558927222E+00
  -1.8054424623989729E+00  -1.8051295805954886E+00  -1.8048167105135511E+00  -1.8045038521843551E+00  -1.8041910056390056E+00
  -1.8038781709085234E+00  -1.8035653480238421E+00  -1.8032525370158079E+00  -1.8029397379151819E+00  -1.8026269507526391E+00
  -1.8023141755587679E+00  -1.8020014123640729E+00  -1.8016886611989715E+00  -1.8013759220937982E+00  -1.8010631950788007E+00
  -1.8007504801841443E+00  -1.8004377774399087E+00  -1.8001250868760894E+00  -1.7998124085225988E+00  -1.7994997424092656E+00
  -1.7991870885658343E+00  -1.7988744470219675E+00  -1.7985618178072444E+00  -1.7982492009511613E+00  -1.7979365964831324E+00
  -1.7976240044324896E+00  -1.7973114248284818E+00  -1.7969988577002780E+00  -1.7966863030769651E+00  -1.7963737609875476E+00
  -1.7960612314609494E+00  -1.7957487145260143E+00  -1.7954362102115047E+00  -1.7951237185461022E+00  -1.7948112395584099E+00
  -1.7944987732769488E+00  -1.7941863197301609E+00  -1.7938738789464090E+00  -1.7935614509539775E+00  -1.7932490357810689E+00
  -1.7929366334558090E+00  -1.7926242440062441E+00  -1.7923118674603427E+00  -1.7919995038459944E+00  -1.7916871531910108E+00
  -1.7913748155231253E+00  -1.7910624908699952E+00  -1.7907501792591987E+00  -1.7904378807182373E+00  -1.7901255952745352E+00
  -1.7898133229554412E+00  -1.7895010637882258E+00  -1.7891888178000841E+00  -1.7888765850181347E+00  -1.7885643654694199E+00
  -1.7882521591809080E+00  -1.7879399661794886E+00  -1.7876277864919785E+00  -1.7873156201451197E+00  -1.7870034671655763E+00
  -1.7866913275799403E+00  -1.7863792014147295E+00  -1.7860670886963843E+00  -1.7857549894512739E+00  -1.7854429037056931E+00
  -1.7851308314858623E+00  -1.7848187728179279E+00  -1.7845067277279636E+00  -1.7841946962419701E+00  -1.7838826783858759E+00
  -1.7835706741855346E+00  -1.7832586836667288E+00  -1.7829467068551690E+00  -1.7826347437764929E+00  -1.7823227944562661E+00
  -1.7820108589199830E+00  -1.7816989371930656E+00  -1.7813870293008653E+00  -1.7810751352686620E+00  -1.7807632551216650E+00
  -1.7804513888850118E+00  -1.7801395365837700E+00  -1.7798276982429366E+00  -1.7795158738874393E+00  -1.7792040635421338E+00
  -1.7788922672318073E+00  -1.7785804849811770E+00  -1.7782687168148907E+00  -1.7779569627575276E+00  -1.7776452228335953E+00
  -1.7773334970675352E+00  -1.7770217854837187E+00  -1.7767100881064490E+00  -1.7763984049599615E+00  -1.7760867360684212E+00
  -1.7757750814559270E+00  -1.7754634411465093E+00  -1.7751518151641323E+00  -1.7748402035326902E+00  -1.7745286062760113E+00
  -1.7742170234178571E+00  -1.7739054549819215E+00  -1.7735939009918322E+00  -1.7732823614711488E+00  -1.7729708364433672E+00
  -1.7726593259319141E+00  -1.7723478299601527E+00  -1.7720363485513790E+00  -1.7717248817288229E+00  -1.7714134295156498E+00
  -1.7711019919349593E+00  -1.7707905690097858E+00  -1.7704791607630992E+00  -1.7701677672178033E+00  -1.7698563883967391E+00
  -1.7695450243226809E+00  -1.7692336750183402E+00  -1.7689223405063643E+00  -1.7686110208093362E+00  -1.7682997159497746E+00
  -1.7679884259501366E+00  -1.7676771508328122E+00  -1.7673658906201313E+00  -1.7670546453343599E+00  -1.7667434149976995E+00
  -1.7664321996322914E+00  -1.7661209992602118E+00  -1.7658098139034759E+00  -1.7654986435840367E+00  -1.7651874883237835E+00
  -1.7648763481445451E+00  -1.7645652230680884E+00  -1.7642541131161176E+00  -1.7639430183102767E+00  -1.7636319386721480E+00
  -1.7633208742232516E+00  -1.7630098249850483E+00  -1.7626987909789364E+00  -1.7623877722262544E+00  -1.7620767687482808E+00
  -1.7617657805662326E+00  -1.7614548077012675E+00  -1.7611438501744821E+00  -1.7608329080069147E+00  -1.7605219812195418E+00
  -1.7602110698332825E+00  -1.7599001738689943E+00  -1.7595892933474782E+00  -1.7592784282894731E+00  -1.7589675787156613E+00
  -1.7586567446466643E+00  -1.7583459261030472E+00  -1.7580351231053146E+00  -1.7577243356739130E+00  -1.7574135638292323E+00
  -1.7571028075916038E+00  -1.7567920669812991E+00  -1.7564813420185337E+00  -1.7561706327234670E+00  -1.7558599391161964E+00
  -1.7555492612167674E+00  -1.7552385990451640E+00  -1.7549279526213168E+00  -1.7546173219650958E+00  -1.7543067070963185E+00
  -1.7539961080347422E+00  -1.7536855248000700E+00  -1.7533749574119484E+00  -1.7530644058899665E+00  -1.7527538702536591E+00
  -1.7524433505225050E+00  -1.7521328467159261E+00  -1.7518223588532900E+00  -1.7515118869539081E+00  -1.7512014310370383E+00
  -1.7508909911218804E+00  -1.7505805672275823E+00  -1.7502701593732353E+00  -1.7499597675778769E+00  -1.7496493918604890E+00
  -1.7493390322400011E+00  -1.7490286887352864E+00  -1.7487183613651653E+00  -1.7484080501484041E+00  -1.7480977551037138E+00
  -1.7477874762497545E+00  -1.7474772136051304E+00  -1.7471669671883940E+00  -1.7468567370180423E+00  -1.7465465231125221E+00
  -1.7462363254902253E+00  -1.7459261441694909E+00  -1.7456159791686059E+00  -1.7453058305058053E+00  -1.7449956981992709E+00
  -1.7446855822671306E+00  -1.7443754827274633E+00  -1.7440653995982947E+00  -1.7437553328975972E+00  -1.7434452826432931E+00
  -1.7431352488532528E+00  -1.7428252315452937E+00  -1.7425152307371845E+00  -1.7422052464466409E+00  -1.7418952786913271E+00
  -1.7415853274888584E+00  -1.7412753928567968E+00  -1.7409654748126553E+00  -1.7406555733738966E+00  -1.7403456885579307E+00
  -1.7400358203821198E+00  -1.7397259688637745E+00  -1.7394161340201559E+00  -1.7391063158684754E+00  -1.7387965144258943E+00
  -1.7384867297095241E+00  -1.7381769617364260E+00  -1.7378672105236139E+00  -1.7375574760880508E+00  -1.7372477584466508E+00
   5.0803612526640507E+01   5.0803612526640507E+01   5.0803612526640507E+01   5.0803612526640507E+01   5.0803612526640507E+01
   5.0803612526640507E+01   5.0803612526640507E+01   5.0803612526640507E+01   5.0803612526640507E+01   5.0803612526640507E+01
   5.0803612526640507E+01   5.0803612526640507E+01   5.0803612526640507E+01   5.0803612526640507E+01   5.0803612526640507E+01
   5.0803612526640507E+01   5.0803612526640507E+01   5.0803612526640507E+01   5.0803612526640507E+01   5.0803612526640507E+01
   5.0803612526640507E+01   5.0803612526640507E+01   5.0803612526640507E+01   5.0803612526640507E+01   5.0803612526640507E+01
   5.0803612526640507E+01   5.0803612526640507E+01   5.0803612526640507E+01   5.0803612526640507E+01   5.0803612526640507E+01
   5.0803612526640507E+01   5.0803612526640507E+01   5.0803612526640507E+01   5.0803612526640507E+01   5.0803612526640507E+01
   5.0803612526640507E+01   5.0803612526640507E+01   5.0803612526640507E+01   5.0803612526640507E+01   5.0803612526640507E+01
   5.0803612526640507E+01   5.0803612526640507E+01   5.0803612526640507E+01   5.0803612526640507E+01   5.0803612526640507E+01
   5.0803612526640507E+01   5.0803612526640507E+01   5.0803612526640507E+01   5.0803612526640507E+01   5.0803612526640507E+01
   5.0803612526640507E+01   5.0803612526640507E+01   5.0803612526640507E+01   5.0803612526640507E+01   5.0803612526640507E+01
   5.0803612526640507E+01   5.0803612526640507E+01   5.0803612526640507E+01   5.0803612526640507E+01   5.0803612526640507E+01
   5.0803612526640507E+01   5.0803612526640507E+01   5.0803612526640507E+01   5.0803612526640507E+01   5.0803612526640507E+01
   5.0803612526640507E+01   5.0803612526640507E+01   5.0803612526640507E+01   5.0803612526640507E+01   5.0803612526640507E+01
   5.0803612526640507E+01   5.0803612526640507E+01   5.0803612526640507E+01   5.0803612526640507E+01   5.0803612526640507E+01
   5.0803612526640507E+01   5.0803612526640507E+01   5.0803612526640507E+01   5.0803612526640507E+01   5.0803612526640507E+01
   5.0803612526640507E+01   5.0803612526640507E+01   5.0803612526640507E+01   5.0803612526640507E+01   5.0803612526640507E+01
   5.0803612526640507E+01   5.0803612526640507E+01   5.0803612526640507E+01   5.0803612526640507E+01   5.0803612526640507E+01
   5.0803612526640507E+01   5.0803612526640507E+01   5.0803612526640507E+01   5.0803612526640507E+01   5.0803612526640507E+01
   5.0803612526640507E+01   5.0803612526640507E+01   5.0803612526640507E+01   5.0803612526640507E+01   5.0803612526640507E+01
   5.0803612526640507E+01   5.0803612526640507E+01   5.0803612526640507E+01   5.0803612526640507E+01   5.0803612526640507E+01
   5.0803612526640507E+01   5.0803612526640507E+01   5.0803612526640507E+01   5.0803612526640507E+01   5.0803612526640507E+01
   5.0803612526640507E+01   5.0803612526640507E+01   5.0803612526640507E+01   5.0803612526640507E+01   5.0803612526640507E+01
   5.0803612526640507E+01   5.0803612526640507E+01   5.0803612526640507E+01   5.0803612526640507E+01   5.0803612526640507E+01
   5.0803612526640507E+01   5.0803612526640507E+01   5.0803612526640507E+01   5.0803612526640507E+01   5.0803612526640507E+01
   5.0803612526640507E+01   5.0803612526640507E+01   5.0803612526640507E+01   5.0803612526640507E+01   5.0803612526640507E+01
   5.0803612526640507E+01   5.0803612526640507E+01   5.0803612526640507E+01   5.0803612526640507E+01   5.0803612526640507E+01
   5.0803612526640507E+01   5.0803612526640507E+01   5.0803612526640507E+01   5.0803612526640507E+01   5.0803612526640507E+01
   5.0803612526640507E+01   5.0803612526640507E+01   5.0803612526640507E+01   5.0803612526640507E+01   5.0803612526640507E+01
   5.0803612526640507E+01   5.0803612526640507E+01   5.0803612526640507E+01   5.0803612526640507E+01   5.0803612526640507E+01
   5.0803612526640507E+01   5.0803612526640507E+01   5.0803612526640507E+01   5.0803612526640507E+01   5.0803612526640507E+01
   5.0803612526640507E+01   5.0803612526640507E+01   5.0635054367237693E+01   5.0361284689010205E+01   5.0088994364398495E+01
   4.9818175437203962E+01   4.9548819992400539E+01   4.9280920155988241E+01   4.9014468094844716E+01   4.8749456016574506E+01
   4.8485876169356473E+01   4.8223720841789344E+01   4.7962982362735438E+01   4.7703653101162907E+01   4.7445725465986172E+01
   4.7189191905905190E+01   4.6934044909243340E+01   4.6680277003783829E+01   4.6427880756605262E+01   4.6176848773915850E+01
   4.5927173700886840E+01   4.5678848221484913E+01   4.5431865058303785E+01   4.5186216972394952E+01   4.4941896763097873E+01
   4.4698897267869448E+01   4.4457211362112893E+01   4.4216831959006086E+01   4.3977752009329706E+01   4.3739964501294615E+01
   4.3503462460369114E+01   4.3268238949105950E+01   4.3034287066968929E+01   4.2801599950159435E+01   4.2570170771442839E+01
   4.2339992739974662E+01   4.2111059101126862E+01   4.1883363136313989E+01   4.1656898162819374E+01   4.1431657533621376E+01
   4.1207634637219712E+01   4.0984822897462010E+01   4.0763215773370362E+01   4.0542806758968077E+01   4.0323589383106828E+01
   4.0105557209293927E+01   3.9888703835519763E+01   3.9673022894085690E+01   3.9458508051432261E+01   3.9245153007967616E+01
   3.9032951497896427E+01   3.8821897289049076E+01   3.8611984182711474E+01   3.8403206013454977E+01   3.8195556648966992E+01
   3.7989029989882006E+01   3.7783619969613007E+01   3.7579320554183397E+01   3.7376125742059628E+01   3.7174029563984043E+01
   3.6973026082808381E+01   3.6773109393328035E+01   3.6574273622116522E+01   3.6376512927360707E+01   3.6179821498696626E+01
   3.5984193557045870E+01   3.5789623354452516E+01   3.5596105173920655E+01   3.5403633329252784E+01   3.5212202164888438E+01
   3.5021806055743731E+01   3.4832439407051389E+01   3.4644096654201590E+01   3.4456772262583279E+01   3.4270460727426233E+01
   3.4085156573643729E+01   3.3900854355676039E+01   3.3717548657334291E+01   3.3535234091645393E+01   3.3353905300697292E+01
   3.3173556955485083E+01   3.2994183755757767E+01   3.2815780429865804E+01   3.2638341734609057E+01   3.2461862455085793E+01
   3.2286337404542209E+01   3.2111761424222529E+01   3.1938129383220037E+01   3.1765436178328660E+01   3.1593676733895308E+01
   3.1422846001672870E+01   3.1252938960673870E+01   3.1083950617025064E+01   3.0915876003822397E+01   3.0748710180986894E+01
   3.0582448235121181E+01   3.0417085279366756E+01   3.0252616453261759E+01   3.0089036922599835E+01   2.9926341879289275E+01
   2.9764526541213105E+01   2.9603586152089807E+01   2.9443515981334773E+01   2.9284311323922367E+01   2.9125967500248741E+01
   2.8968479855995390E+01   2.8811843761993323E+01   2.8656054614087829E+01   2.8501107833004259E+01   2.8346998864214168E+01
   2.8193723177802223E+01   2.8041276268333874E+01   2.7889653654723713E+01   2.7738850880104351E+01   2.7588863511696140E+01
   2.7439687140677499E+01   2.7291317382055965E+01   2.7143749874539775E+01   2.6996980280410252E+01   2.6851004285394897E+01
   2.6705817598540939E+01   2.6561415952089707E+01   2.6417795101351711E+01   2.6274950824582103E+01   2.6132878922857156E+01
   2.5991575219951155E+01   2.5851035562213955E+01   2.5711255818449256E+01   2.5572231879793463E+01   2.5433959659595288E+01
   2.5296435093295806E+01   2.5159654138309286E+01   2.5023612773904677E+01   2.4888307001087615E+01   2.4753732842483057E+01
   2.4619886342218678E+01   2.4486763565808765E+01   2.4354360600038707E+01   2.4222673552850218E+01   2.4091698553227072E+01
   2.3961431751081509E+01   2.3831869317141162E+01   2.3703007442836732E+01   2.3574842340190109E+01   2.3447370241703140E+01
   2.3320587400247089E+01   2.3194490088952559E+01   2.3069074601100027E+01   2.2944337250011021E+01   2.2820274368939895E+01
   2.2696882310966053E+01   2.2574157448886883E+01   2.2452096175111208E+01   2.2330694901553361E+01   2.2209950059527714E+01
   2.2089858099643859E+01   2.1970415491702429E+01   2.1851618724591287E+01   2.1733464306182402E+01   2.1615948763229298E+01
   2.1499068641264941E+01   2.1382820504500305E+01   2.1267200935723373E+01   2.1152206536198793E+01   2.1037833925567892E+01
   2.0924079741749512E+01   2.0810940640841107E+01   2.0698413297020494E+01   2.0586494402448139E+01   2.0475180667169976E+01
   2.0364468819020676E+01   2.0254355603527511E+01   2.0144837783814729E+01   2.0035912140508408E+01   1.9927575471641816E+01
   1.9819824592561385E+01   1.9712656335833067E+01   1.9606067551149234E+01   1.9500055105236093E+01   1.9394615881761624E+01
   1.9289746781243995E+01   1.9185444720960419E+01   1.9081706634856566E+01   1.8978529473456522E+01   1.8875910203772996E+01
   1.8773845809218351E+01   1.8672333289515851E+01   1.8571369660611449E+01   1.8470951954586145E+01   1.8371077219568711E+01
   1.8271742519648964E+01   1.8172944934791403E+01   1.8074681560749443E+01   1.7976949508980038E+01   1.7879745906558725E+01
   1.7783067896095243E+01   1.7686912635649534E+01   1.7591277298648162E+01   1.7496159073801280E+01   1.7401555165019946E+01
   1.7307462791334007E+01   1.7213879186810232E+01   1.7120801600471154E+01   1.7028227296214116E+01   1.6936153552730840E+01
   1.6844577663427479E+01   1.6753496936345048E+01   1.6662908694080254E+01   1.6572810273706846E+01   1.6483199026697307E+01
   1.6394072318845041E+01   1.6305427530186822E+01   1.6217262054925953E+01   1.6129573301355553E+01   1.6042358691782390E+01
   1.5955615662451127E+01   1.5869341663468951E+01   1.5783534158730637E+01   1.5698190625843962E+01   1.5613308556055554E+01
   1.5528885454177232E+01   1.5444918838512525E+01   1.5361406240783836E+01   1.5278345206059839E+01   1.5195733292683302E+01
   1.5113568072199321E+01   1.5031847129283971E+01   1.4950568061673257E+01   1.4869728480092514E+01   1.4789326008186173E+01
   1.4709358282447930E+01   1.4629822952151214E+01   1.4550717679280154E+01   1.4472040138460796E+01   1.4393788016892776E+01
   1.4315959014281331E+01   1.4238550842769639E+01   1.4161561226871649E+01   1.4084987903405121E+01   1.4008828621425099E+01
   1.3933081142157810E+01   1.3857743238934766E+01   1.3782812697127371E+01   1.3708287314081788E+01   1.3634164899054209E+01
   1.3560443273146445E+01   1.3487120269241874E+01   1.3414193731941767E+01   1.3341661517501862E+01   1.3269521493769410E+01
   1.3197771540120495E+01   1.3126409547397628E+01   1.3055433417847848E+01   1.2984841065060968E+01   1.2914630413908290E+01
   1.2844799400481605E+01   1.2775345972032500E+01   1.2706268086912035E+01   1.2637563714510714E+01   1.2569230835198789E+01
   1.2501267440266924E+01   1.2433671531867100E+01   1.2366441122953935E+01   1.2299574237226226E+01   1.2233068909068882E+01
   1.2166923183495150E+01   1.2101135116089111E+01   1.2035702772948575E+01   1.1970624230628166E+01   1.1905897576082836E+01
   1.1841520906611613E+01   1.1777492329801653E+01   1.1713809963472636E+01   1.1650471935621418E+01   1.1587476384367005E+01
   1.1524821457895845E+01   1.1462505314407331E+01   1.1400526122059750E+01   1.1338882058916353E+01   1.1277571312891832E+01
   1.1216592081699069E+01   1.1155942572796116E+01   1.1095621003333534E+01   1.1035625600101964E+01   1.0975954599480016E+01
   1.0916606247382425E+01   1.0857578799208468E+01   1.0798870519790718E+01   1.0740479683343988E+01   1.0682404573414658E+01
   1.0624643482830141E+01   1.0567194713648785E+01   1.0510056577109912E+01   1.0453227393584161E+01   1.0396705492524168E+01
   1.0340489212415401E+01   1.0284576900727348E+01   1.0228966913864957E+01   1.0173657617120259E+01   1.0118647384624399E+01
   1.0063934599299767E+01   1.0009517652812495E+01   9.9553949455251889E+00   9.9015648864498811E+00   9.8480258932012905E+00
   9.7947763919502702E+00   9.7418148173775716E+00   9.6891396126278284E+00   9.6367492292637724E+00   9.5846421272207412E+00
   9.5328167747613843E+00   9.4812716484306456E+00   9.4300052330109949E+00   9.3790160214778417E+00   9.3283025149552987E+00
   9.2778632226720656E+00   9.2276966619176335E+00   9.1778013579986997E+00   9.1281758441957948E+00   9.0788186617202076E+00
   9.0297283596710631E+00   8.9809034949926829E+00   8.9323426324321904E+00   8.8840443444972816E+00   8.8360072114142945E+00
   8.7882298210864445E+00   8.7407107690523382E+00   8.6934486584446891E+00   8.6464420999492297E+00   8.5996897117638991E+00
   8.5531901195582041E+00   8.5069419564328310E+00   8.4609438628794695E+00   8.4151944867408144E+00   8.3696924831708763E+00
   8.3244365145953889E+00   8.2794252506725385E+00   8.2346573682538065E+00   8.1901315513451287E+00   8.1458464910681787E+00
   8.1018008856218859E+00   8.0579934402442035E+00   8.0144228671739963E+00   7.9710878856132288E+00   7.9279872216893068E+00
   7.8851196084176056E+00   7.8424837856642586E+00   7.8000785001090955E+00   7.7579025052087971E+00   7.7159545611602756E+00
   7.6742334348641901E+00   7.6327378998887436E+00   7.5914667364335964E+00   7.5504187312940179E+00   7.5095926778252347E+00
   7.4689873759069485E+00   7.4286016319080623E+00   7.3884342586515910E+00   7.3484840753797531E+00   7.3087499077192906E+00
   7.2692305876469074E+00   7.2299249534549741E+00   7.1908318497173420E+00   7.1519501272554038E+00   7.1132786431043087E+00
   7.0748162604793414E+00   7.0365618487425463E+00   6.9985142833694507E+00   6.9606724459160292E+00   6.9230352239858330E+00
   6.8856015111972599E+00   6.8483702071510688E+00   6.8113402173980013E+00   6.7745104534066369E+00   6.7378798325313625E+00
   6.7014472779805736E+00   6.6652117187850148E+00   6.6291720897662900E+00   6.5933273315055558E+00   6.5576763903123787E+00
   6.5222182181937578E+00   6.4869517728233310E+00   6.4518760175107088E+00   6.4169899211710293E+00   6.3822924582946303E+00
   6.3477826089168978E+00   6.3134593585883136E+00   6.2793216983445941E+00   6.2453686246770683E+00   6.2115991395031509E+00
   6.1780122501370096E+00   6.1446069692604013E+00   6.1113823148936230E+00   6.0783373103666696E+00   6.0454709842905014E+00
   6.0127823705285026E+00   5.9802705081680854E+00   5.9479344414924284E+00   5.9157732199523938E+00   5.8837858981385782E+00
   5.8519715357535240E+00   5.8203291975840878E+00   5.7888579534739248E+00   5.7575568782961781E+00   5.7264250519262552E+00
   5.6954615592147908E+00   5.6646654899607558E+00   5.6340359388846810E+00   5.6035720056020670E+00   5.5732727945968970E+00
   5.5431374151953170E+00   5.5131649815394717E+00   5.4833546125614339E+00   5.4537054319573341E+00   5.4242165681615733E+00
   5.3948871543212285E+00   5.3657163282705502E+00   5.3367032325056281E+00   5.3078470141591847E+00   5.2791468249754976E+00
   5.2506018212854766E+00   5.2222111639818465E+00   5.1939740184944911E+00   5.1658895547659238E+00   5.1379569472268765E+00
   5.1101753747720435E+00   5.0825440207359289E+00   5.0550620728688527E+00   5.0277287233130750E+00   5.0005431685790347E+00
   4.9735046095217452E+00   4.9466122513172932E+00   4.9198653034394750E+00   4.8932629796365683E+00   4.8668044979082010E+00
   4.8404890804823841E+00   4.8143159537926339E+00   4.7882843484552344E+00   4.7623934992466284E+00   4.7366426450809138E+00
   4.7110310289874784E+00   4.6855578980887422E+00   4.6602225035780229E+00   4.6350241006975397E+00   4.6099619487164993E+00
   4.5850353109093422E+00   4.5602434545340662E+00   4.5355856508106998E+00   4.5110611748998775E+00   4.4866693058815290E+00
   4.4624093267336873E+00   4.4382805243114154E+00   4.4142821893258333E+00   4.3904136163232854E+00   4.3666741036645780E+00
   4.3430629535043801E+00   4.3195794717706892E+00   4.2962229681444413E+00   4.2729927560392102E+00   4.2498881525810273E+00
   4.2269084785883129E+00   4.2040530585519038E+00   4.1813212206151995E+00   4.1587122965544108E+00   4.1362256217589151E+00
   4.1138605352117308E+00   4.0916163794700680E+00   4.0694925006460183E+00   4.0474882483873227E+00   4.0256029758582557E+00
   4.0038360397206221E+00   3.9821868001148268E+00   3.9606546206410784E+00   3.9392388683406816E+00   3.9179389136774243E+00
   3.8967541305190698E+00   3.8756838961189706E+00   3.8547275910977357E+00   3.8338845994250361E+00   3.8131543084015025E+00
   3.7925361086407019E+00   3.7720293940512306E+00   3.7516335618188936E+00   3.7313480123889957E+00   3.7111721494487013E+00
   3.6911053799095099E+00   3.6711471138898366E+00   3.6512967646976477E+00   3.6315537488132299E+00   3.6119174858720364E+00
   3.5923873986476207E+00   3.5729629130346723E+00   3.5536434580321345E+00   3.5344284657264393E+00   3.5153173712747816E+00
   3.4963096128885347E+00   3.4774046318167451E+00   3.4586018723296825E+00   3.4399007817025198E+00   3.4213008101990807E+00
   3.4028014110556857E+00   3.3844020404650705E+00   3.3661021575604013E+00   3.3479012243993891E+00   3.3297987059484564E+00
   3.3117940700670165E+00   3.2938867874918456E+00   3.2760763318215007E+00   3.2583621795008613E+00   3.2407438098057315E+00
   3.2232207048275425E+00   3.2057923494581155E+00   3.1884582313745251E+00   3.1712178410240464E+00   3.1540706716091642E+00
   3.1370162190726791E+00   3.1200539820828976E+00   3.1031834620188841E+00   3.0864041629558101E+00   3.0697155916503722E+00
   3.0531172575263006E+00   3.0366086726599271E+00   3.0201893517658456E+00   3.0038588121826582E+00   2.9876165738587686E+00
   2.9714621593382802E+00   2.9553950937469637E+00   2.9394149047782907E+00   2.9235211226795537E+00   2.9077132802380548E+00
   2.8919909127673789E+00   2.8763535580937214E+00   2.8608007565423104E+00   2.8453320509238988E+00   2.8299469865213127E+00
   2.8146451110760888E+00   2.7994259747751884E+00   2.7842891302377626E+00   2.7692341325020076E+00   2.7542605390120820E+00
   2.7393679096051047E+00   2.7245558064982052E+00   2.7098237942756556E+00   2.6951714398760855E+00   2.6805983125797330E+00
   2.6661039839957934E+00   2.6516880280498252E+00   2.6373500209712248E+00   2.6230895412807684E+00   2.6089061697782197E+00
   2.5947994895300175E+00   2.5807690858570065E+00   2.5668145463222536E+00   2.5529354607189259E+00   2.5391314210582285E+00
   2.5254020215574116E+00   2.5117468586278440E+00   2.4981655308631510E+00   2.4846576390274082E+00   2.4712227860434095E+00
   2.4578605769810005E+00   2.4445706190454572E+00   2.4313525215659468E+00   2.4182058959840438E+00   2.4051303558423061E+00
   2.3921255167729134E+00   2.3791909964863707E+00   2.3663264147602723E+00   2.3535313934281197E+00   2.3408055563682062E+00
   2.3281485294925681E+00   2.3155599407359766E+00   2.3030394200450055E+00   2.2905865993671579E+00   2.2782011126400383E+00
   2.2658825957805981E+00   2.2536306866744287E+00   2.2414450251651257E+00   2.2293252530436871E+00   2.2172710140379936E+00
   2.2052819538023400E+00   2.1933577199070045E+00   2.1814979618278985E+00   2.1697023309362646E+00   2.1579704804884208E+00
   2.1463020656155711E+00   2.1346967433136683E+00   2.1231541724333352E+00   2.1116740136698264E+00   2.1002559295530587E+00
   2.0888995844376979E+00   2.0776046444932805E+00   2.0663707776944080E+00   2.0551976538109820E+00   2.0440849443985036E+00
   2.0330323227884111E+00   2.0220394640784796E+00   2.0111060451232756E+00   2.0002317445246485E+00   1.9894162426222879E+00
   1.9786592214843299E+00   1.9679603648980042E+00   1.9573193583603434E+00   1.9467358890689366E+00   1.9362096459127358E+00
   1.9257403194629081E+00   1.9153276019637382E+00   1.9049711873235911E+00   1.8946707711059003E+00   1.8844260505202290E+00
   1.8742367244133658E+00   1.8641024932604724E+00   1.8540230591562765E+00   1.8439981258063183E+00   1.8340273985182403E+00
   1.8241105841931209E+00   1.8142473913168602E+00   1.8044375299516155E+00   1.7946807117272709E+00   1.7849766498329624E+00
   1.7753250590086522E+00   1.7657256555367347E+00   1.7561781572337030E+00   1.7466822834418498E+00   1.7372377550210230E+00
   1.7278442943404113E+00   1.7185016252703882E+00   1.7092094731743994E+00   1.6999675649008787E+00   1.6907756287752274E+00
   1.6816333945918240E+00   1.6725405936060838E+00   1.6634969585265562E+00   1.6545022235070668E+00   1.6455561241389107E+00
   1.6366583974430682E+00   1.6278087818624802E+00   1.6190070172543627E+00   1.6102528448825522E+00   1.6015460074099064E+00
   1.5928862488907345E+00   1.5842733147632786E+00   1.5757069518422264E+00   1.5671869083112679E+00   1.5587129337157011E+00
   1.5502847789550585E+00   1.5419021962757899E+00   1.5335649392639823E+00   1.5252727628381124E+00   1.5170254232418414E+00
   1.5088226780368490E+00   1.5006642860957187E+00   1.4925500075948290E+00   1.4844796040073203E+00   1.4764528380960771E+00
   1.4684694739067508E+00   1.4605292767608307E+00   1.4526320132487409E+00   1.4447774512229816E+00   1.4369653597912988E+00
   1.4291955093099051E+00   1.4214676713767265E+00   1.4137816188246826E+00   1.4061371257150179E+00   1.3985339673306549E+00
   1.3909719201695858E+00   1.3834507619383101E+00   1.3759702715452924E+00   1.3685302290944705E+00   1.3611304158787811E+00
   1.3537706143737422E+00   1.3464506082310532E+00   1.3391701822722308E+00   1.3319291224822922E+00   1.3247272160034609E+00
   1.3175642511289034E+00   1.3104400172965149E+00   1.3033543050827248E+00   1.2963069061963428E+00   1.2892976134724305E+00
   1.2823262208662183E+00   1.2753925234470469E+00   1.2684963173923380E+00   1.2616373999816095E+00   1.2548155695905139E+00
   1.2480306256849103E+00   1.2412823688149688E+00   1.2345706006093062E+00   1.2278951237691658E+00   1.2212557420625996E+00
   1.2146522603187142E+00   1.2080844844219278E+00   1.2015522213062617E+00   1.1950552789496707E+00   1.1885934663683952E+00
   1.1821665936113461E+00   1.1757744717545222E+00   1.1694169128954532E+00   1.1630937301476874E+00   1.1568047376352801E+00
   1.1505497504873452E+00   1.1443285848326135E+00   1.1381410577940250E+00   1.1319869874833606E+00   1.1258661929958889E+00
   1.1197784944050522E+00   1.1137237127571722E+00   1.1077016700661950E+00   1.1017121893084567E+00   1.0957550944174770E+00
   1.0898302102787869E+00   1.0839373627247819E+00   1.0780763785295937E+00   1.0722470854040098E+00   1.0664493119903993E+00
   1.0606828878576813E+00   1.0549476434963092E+00   1.0492434103132930E+00   1.0435700206272411E+00   1.0379273076634277E+00
   1.0323151055488957E+00   1.0267332493075778E+00   1.0211815748554427E+00   1.0156599189956790E+00   1.0101681194138918E+00
   1.0047060146733346E+00   9.9927344421015740E-01   9.9387024832869508E-01   9.8849626819676606E-01   9.8315134584100339E-01
   9.7783532414221452E-01   9.7254804683075868E-01   9.6728935848195430E-01   9.6205910451150745E-01   9.5685713117096760E-01
   9.5168328554321480E-01   9.4653741553795046E-01   9.4141936988723718E-01   9.3632899814104764E-01   9.3126615066283880E-01
   9.2623067862515684E-01   9.2122243400525949E-01   9.1624126958076424E-01   9.1128703892531726E-01   9.0635959640429342E-01
   9.0145879717051214E-01   8.9658449715997357E-01   8.9173655308763178E-01   8.8691482244317632E-01   8.8211916348684039E-01
   8.7734943524523779E-01   8.7260549750721572E-01   8.6788721081973141E-01   8.6319443648375094E-01   8.5852703655017382E-01
   8.5388487381577360E-01   8.4926781181916333E-01   8.4467571483678505E-01   8.4010844787891770E-01   8.3556587668570392E-01
   8.3104786772320749E-01   8.2655428817948273E-01   8.2208500596066947E-01   8.1763988968710644E-01   8.1321880868947050E-01
   8.0882163300493282E-01   8.0444823337333260E-01   8.0009848123338012E-01   7.9577224871887431E-01   7.9146940865493720E-01
   7.8718983455427960E-01   7.8293340061347605E-01   7.7869998170926613E-01   7.7448945339487030E-01   7.7030169189633368E-01
   7.6613657410888214E-01   7.6199397759329857E-01   7.5787378057232335E-01   7.5377586192707113E-01   7.4970010119346575E-01
   7.4564637855869476E-01   7.4161457485768378E-01   7.3760457156959514E-01   7.3361625081433013E-01   7.2964949534906742E-01
   7.2570418856480978E-01   7.2178021448294927E-01   7.1787745775185741E-01   7.1399580364348714E-01   7.1013513804999617E-01
   7.0629534748038436E-01   7.0247631905715702E-01   6.9867794051299859E-01   6.9490010018746484E-01   6.9114268702369785E-01
   6.8740559056515360E-01   6.8368870095234657E-01   6.7999190891961692E-01   6.7631510579190968E-01   6.7265818348157347E-01
   6.6902103448517336E-01   6.6540355188032696E-01   6.6180562932255005E-01   6.5822716104212287E-01   6.5466804184097271E-01
   6.5112816708957333E-01   6.4760743272385668E-01   6.4410573524214787E-01   6.4062297170211135E-01   6.3715903971771437E-01
   6.3371383745620491E-01   6.3028726363511067E-01   6.2687921751924791E-01   6.2348959891774736E-01   6.2011830818110014E-01
   6.1676524619821327E-01   6.1343031439348383E-01   6.1011341472388647E-01   6.0681444967607945E-01   6.0353332226352308E-01
   6.0026993602361112E-01   5.9702419501482351E-01   5.9379600381388831E-01   5.9058526751295815E-01   5.8739189171680706E-01
   5.8421578254003503E-01   5.8105684660429169E-01   5.7791499103551025E-01   5.7479012346115865E-01   5.7168215200750827E-01
   5.6859098529690411E-01   5.6551653244506517E-01   5.6245870305838652E-01   5.5941740723125855E-01   5.5639255554340317E-01
   5.5338405905721955E-01   5.5039182931514474E-01   5.4741577833702593E-01   5.4445581861751013E-01   5.4151186312344213E-01
   5.3858382529127735E-01   5.3567161902450977E-01   5.3277515869110981E-01   5.2989435912097327E-01   5.2702913560338982E-01
   5.2417940388451645E-01   5.2134508016486814E-01   5.1852608109681608E-01   5.1572232378210559E-01   5.1293372576937901E-01
   5.1016020505171167E-01   5.0740168006416564E-01   5.0465806968134785E-01   5.0192929321498225E-01   4.9921527041149677E-01
   4.9651592144961793E-01   4.9383116693797818E-01   4.9116092791273341E-01   4.8850512583519473E-01   4.8586368258946783E-01
   4.8323652048010340E-01   4.8062356222976260E-01   4.7802473097688758E-01   4.7543995027338665E-01   4.7286914408232683E-01
   4.7031223677564105E-01   4.6776915313184125E-01   4.6523981833374251E-01   4.6272415796620081E-01   4.6022209801385700E-01
   4.5773356485888922E-01   4.5525848527878116E-01   4.5279678644409410E-01   4.5034839591625137E-01   4.4791324164532886E-01
   4.4549125196786132E-01   4.4308235560465065E-01   4.4068648165858587E-01   4.3830355961247486E-01   4.3593351932688018E-01
   4.3357629103796486E-01   4.3123180535535055E-01   4.2889999325997741E-01   4.2658078610197864E-01   4.2427411559855704E-01
   4.2197991383187600E-01   4.1969811324695377E-01   4.1742864664956514E-01   4.1517144720415522E-01   4.1292644843175658E-01
   4.1069358420791352E-01   4.0847278876061771E-01   4.0626399666824625E-01   4.0406714285750972E-01   4.0188216260140386E-01
   3.9970899151717204E-01   3.9754756556427207E-01   3.9539782104234678E-01   3.9325969458920662E-01   3.9113312317881299E-01
   3.8901804411927043E-01   3.8691439505082248E-01   3.8482211394385651E-01   3.8274113909691032E-01   3.8067140913468506E-01
   3.7861286300606534E-01   3.7656543998214276E-01   3.7452907965424170E-01   3.7250372193195586E-01   3.7048930704118344E-01
   3.6848577552217054E-01   3.6649306822755462E-01   3.6451112632041777E-01   3.6253989127233888E-01   3.6057930486144990E-01
   3.5862930917049934E-01   3.5668984658491504E-01   3.5476085979087091E-01   3.5284229177335874E-01   3.5093408581425989E-01
   3.4903618549042192E-01   3.4714853467173518E-01   3.4527107751921410E-01   3.4340375848307925E-01   3.4154652230083971E-01
   3.3969931399538061E-01   3.3786207887304898E-01   3.3603476252174075E-01   3.3421731080899192E-01   3.3240966988006665E-01
   3.3061178615604897E-01   3.2882360633193103E-01   3.2704507737470712E-01   3.2527614652146264E-01   3.2351676127746370E-01
   3.2176686941424915E-01   3.2002641896771850E-01   3.1829535823621952E-01   3.1657363577863651E-01   3.1486120041247478E-01
   3.1315800121194531E-01   3.1146398750604493E-01   3.0977910887663840E-01   3.0810331515653377E-01   3.0643655642755724E-01
   3.0477878301862577E-01   3.0312994550381467E-01   3.0148999470042304E-01   2.9985888166703417E-01   2.9823655770157453E-01
   2.9662297433936602E-01   2.9501808335117352E-01   2.9342183674125100E-01   2.9183418674537887E-01   2.9025508582889642E-01
   2.8868448668473240E-01   2.8712234223142458E-01   2.8556860561113667E-01   2.8402323018766651E-01   2.8248616954444949E-01
   2.8095737748255367E-01   2.7943680801866699E-01   2.7792441538307872E-01   2.7642015401765091E-01   2.7492397857378204E-01
   2.7343584391036335E-01   2.7195570509172440E-01   2.7048351738557042E-01   2.6901923626090929E-01   2.6756281738596993E-01
   2.6611421662610940E-01   2.6467339004170853E-01   2.6324029388605913E-01   2.6181488460323815E-01   2.6039711882596955E-01
   2.5898695337347666E-01   2.5758434524932011E-01   2.5618925163922429E-01   2.5480162990888916E-01   2.5342143760179159E-01
   2.5204863243697062E-01   2.5068317230679854E-01   2.4932501527473991E-01   2.4797411957309287E-01   2.4663044360071770E-01
   2.4529394592074777E-01   2.4396458525828668E-01   2.4264232049808782E-01   2.4132711068221693E-01   2.4001891500769956E-01
   2.3871769282414951E-01   2.3742340363137904E-01   2.3613600707699367E-01   2.3485546295396573E-01   2.3358173119819062E-01
   2.3231477188602234E-01   2.3105454523179239E-01   2.2980101158530550E-01   2.2855413142931627E-01   2.2731386537698633E-01
   2.2608017416931908E-01   2.2485301867257251E-01   2.2363235987565275E-01   2.2241815888748295E-01   2.2121037693435144E-01
   2.2000897535723571E-01   2.1881391560910529E-01   2.1762515925219922E-01   2.1644266795528067E-01   2.1526640349086806E-01
   2.1409632773244100E-01   2.1293240265162114E-01   2.1177459031533025E-01   2.1062285288292090E-01   2.0947715260328259E-01
   2.0833745181192170E-01   2.0720371292801687E-01   2.0607589845144680E-01   2.0495397095979173E-01   2.0383789310530959E-01
   2.0272762761188448E-01   2.0162313727194775E-01   2.0052438494337385E-01   1.9943133354634759E-01   1.9834394606020486E-01
   1.9726218552024499E-01   1.9618601501451813E-01   1.9511539768058322E-01   1.9405029670223869E-01   1.9299067530622802E-01
   1.9193649675891603E-01   1.9088772436293888E-01   1.8984432145382715E-01   1.8880625139660262E-01   1.8777347758234841E-01
   1.8674596342475200E-01   1.8572367235662454E-01   1.8470656782639264E-01   1.8369461329456585E-01   1.8268777223018043E-01
   1.8168600810721786E-01   1.8068928440100063E-01   1.7969756458456440E-01   1.7871081212501008E-01   1.7772899047983254E-01
   1.7675206309322941E-01   1.7577999339239181E-01   1.7481274478377526E-01   1.7385028064935287E-01   1.7289256434285449E-01
   1.7193955918598897E-01   1.7099122846465378E-01   1.7004753542513232E-01   1.6910844327028149E-01   1.6817391515571020E-01
   1.6724391418595011E-01   1.6631840341062334E-01   1.6539734582060522E-01   1.6448070434418730E-01   1.6356844184324251E-01
   1.6266052110939316E-01   1.6175690486018662E-01   1.6085755573527921E-01   1.5996243629263454E-01   1.5907150900473541E-01
   1.5818473625481483E-01   1.5730208033311052E-01   1.5642350343314360E-01   1.5554896764802828E-01   1.5467843496681374E-01
   1.5381186727086657E-01   1.5294922633029312E-01   1.5209047380041024E-01   1.5123557121826842E-01   1.5038447999923180E-01
   1.4953716143362053E-01   1.4869357668342317E-01   1.4785368677908156E-01   1.4701745261635835E-01   1.4618483495328966E-01
   1.4535579440723440E-01   1.4453029145202298E-01   1.4370828641521491E-01   1.4288973947547423E-01   1.4207461066006860E-01
   1.4126285984250109E-01   1.4045444674028604E-01   1.3964933091287385E-01   1.3884747175973827E-01   1.3804882851863320E-01
   1.3725336026403198E-01   1.3646102590575793E-01   1.3567178418781747E-01   1.3488559368744926E-01   1.3410241281439933E-01
   1.3332219981043494E-01   1.3254491274911204E-01   1.3177050953580699E-01   1.3099894790802752E-01   1.3023018543601911E-01
   1.2946417952367684E-01   1.2870088740978367E-01   1.2794026616958581E-01   1.2718227271672561E-01   1.2642686380554427E-01
   1.2567399603377580E-01   1.2492362584564755E-01   1.2417570953540366E-01   1.2343020325127541E-01   1.2268706299991095E-01
   1.2194624465128978E-01   1.2120770394413660E-01   1.2047139649186028E-01   1.1973727778903354E-01   1.1900530321843793E-01
   1.1827542805869574E-01   1.1754760749250803E-01   1.1682179661552403E-01   1.1609795044586335E-01   1.1537602393431400E-01
   1.1465597197522788E-01   1.1393774941814122E-01   1.1322131108013817E-01   1.1250661175898627E-01   1.1179360624706315E-01
   1.1108224934610224E-01   1.1037249588277857E-01   1.0966430072515804E-01   1.0895761880003721E-01   1.0825240511119219E-01
   1.0754861475856364E-01   1.0684620295839727E-01   1.0614512506436521E-01   1.0544533658968618E-01   1.0474679323026782E-01
   1.0404945088889198E-01   1.0335326570045827E-01   1.0265819405830912E-01   1.0196419264164863E-01   1.0127121844407558E-01
   1.0057922880324036E-01   9.9888181431642159E-02   9.9198034448576208E-02   9.8508746413240894E-02   9.7820276359010125E-02
   9.7132583828879321E-02   9.6445628912085316E-02   9.5759372281899846E-02   9.5073775234597702E-02   9.4388799729589426E-02
   9.3704408430714578E-02   9.3020564748679507E-02   9.2337232884628459E-02   9.1654377874826345E-02   9.0971965636430188E-02
   9.0289963014325680E-02   8.9608337828992912E-02   8.8927058925370200E-02   8.8246096222671669E-02   8.7565420765117627E-02
   8.6885004773522623E-02   8.6204821697690018E-02   8.5524846269550536E-02   8.4845054556977301E-02   8.4165424018206841E-02
   8.3485933556788045E-02   8.2806563576973760E-02   8.2127296039464948E-02   8.1448114517414141E-02   8.0769004252581114E-02
   8.0089952211536281E-02   7.9410947141793156E-02   7.8731979627751594E-02   7.8053042146322263E-02   7.7374129122097610E-02
   7.6695236981933257E-02   7.6016364208788809E-02   7.5337511394680715E-02   7.4658681292586307E-02   7.3979878867139803E-02
   7.3301111343948816E-02   7.2622388257361434E-02   7.1943721496507421E-02   7.1265125349429567E-02   7.0586616545125311E-02
   6.9908214293306972E-02   6.9229940321695799E-02   6.8551818910653581E-02   6.7873876924963134E-02   6.7196143842563172E-02
   6.6518651780045804E-02   6.5841435514723295E-02   6.5164532503077702E-02   6.4487982895404347E-02   6.3811829546465873E-02
   6.3136118021981630E-02   6.2460896600775598E-02   6.1786216272420140E-02   6.1112130730214494E-02   6.0438696359350209E-02
   5.9765972220121866E-02   5.9094020026052657E-02   5.8422904116820287E-02   5.7752691425873172E-02   5.7083451442649945E-02
   5.6415256169320784E-02   5.5748180071994231E-02   5.5082300026339077E-02   5.4417695257597522E-02   5.3754447274979425E-02
   5.3092639800444374E-02   5.2432358691903727E-02   5.1773691860887198E-02   5.1116729184747495E-02   5.0461562413486885E-02
   4.9808285071323136E-02   4.9156992353120828E-02   4.8507781015845963E-02   4.7860749265214719E-02   4.7215996637735166E-02
   4.6573623878356077E-02   4.5933732813958836E-02   4.5296426222952130E-02   4.4661807701240092E-02   4.4029981524861490E-02
   4.3401052509607206E-02   4.2775125867946510E-02   4.2152307063600201E-02   4.1532701664119286E-02   4.0916415191836746E-02
   4.0303552973569308E-02   3.9694219989460586E-02   3.9088520721357760E-02   3.8486559001127622E-02   3.7888437859313541E-02
   3.7294259374544537E-02   3.6704124524104757E-02   3.6118133036068416E-02   3.5536383243406827E-02   3.4958971940464378E-02
   3.4385994242196009E-02   3.3817543446547312E-02   3.3253710900352632E-02   3.2694585869106930E-02   3.2140255410960571E-02
   3.1590804255264074E-02   3.1046314685978696E-02   3.0506866430245302E-02   2.9972536552386232E-02   2.9443399353596553E-02
   2.8919526277553238E-02   2.8400985822154824E-02   2.7887843457574075E-02   2.7380161550788942E-02   2.6877999296724780E-02
   2.6381412656122948E-02   2.5890454300222316E-02   2.5405173562313844E-02   2.4925616396207925E-02   2.4451825341623837E-02
   2.3983839496492340E-02   2.3521694496132211E-02   2.3065422499244034E-02   2.2615052180638983E-02   2.2170608730599426E-02
   2.1732113860746902E-02   2.1299585816275866E-02   2.0873039394390128E-02   2.0452485968762559E-02   2.0037933519825371E-02
   1.9629386670678164E-02   1.9226846728393546E-02   1.8830311730482639E-02   1.8439776496277392E-02   1.8055232682972083E-02
   1.7676668846063139E-02   1.7304070503917843E-02   1.6937420206196159E-02   1.6576697605849719E-02   1.6221879534415132E-02
   1.5872940080322275E-02   1.5529850669933331E-02   1.5192580151033797E-02   1.4861094878496942E-02   1.4535358801845579E-02
   1.4215333554441939E-02   1.3900978544039469E-02   1.3592251044437269E-02   1.3289106287984076E-02   1.2991497558688324E-02
   1.2699376285695356E-02   1.2412692136905471E-02   1.2131393112512210E-02   1.1855425638252988E-02   1.1584734658171709E-02
   1.1319263726703901E-02   1.1058955099907184E-02   1.0803749825666908E-02   1.0553587832721260E-02   1.0308408018357647E-02
   1.0068148334645885E-02   9.8327458730812084E-03   9.6021369475235256E-03   9.3762571753283445E-03   9.1550415565743865E-03
   8.9384245513049014E-03   8.7263401547069443E-03   8.5187219701650090E-03   8.3155032801316611E-03   8.1166171147693186E-03
   7.9219963183241367E-03   7.7315736132017041E-03   7.5452816617214303E-03   7.3630531255351114E-03   7.1848207227006985E-03
   7.0105172824094205E-03   6.8400757973716411E-03   6.6734294738704696E-03   6.5105117794999794E-03   6.3512564886077051E-03
   6.1955977254679112E-03   6.0434700052141429E-03   5.8948082725655280E-03   5.7495479383838184E-03   5.6076249141010538E-03
   5.4689756440619514E-03   5.3335371358260025E-03   5.2012469884783422E-03   5.0720434189985278E-03   4.9458652867397160E-03
   4.8226521160713775E-03   4.7023441172395148E-03   4.5848822055002359E-03   4.4702080185825051E-03   4.3582639325366254E-03
   4.2489930760251128E-03   4.1423393431135377E-03   4.0382474046174715E-03   3.9366627180629516E-03   3.8375315363162123E-03
   3.7408009149391039E-03   3.6464187183250806E-03   3.5543336246702515E-03   3.4644951298336878E-03   3.3768535501391248E-03
   3.2913600241704548E-03   3.2079665136112430E-03   3.1266258031784388E-03   3.0472914996981151E-03   2.9699180303709247E-03
   2.8944606402731220E-03   2.8208753891375768E-03   2.7491191474585219E-03   2.6791495919616087E-03   2.6109252004804058E-03
   2.5444052462781507E-03   2.4795497918530707E-03   2.4163196822637135E-03   2.3546765380095553E-03   2.2945827475006298E-03
   2.2360014591489910E-03   2.1788965731130419E-03   2.1232327327246306E-03   2.0689753156278557E-03   2.0160904246565988E-03
   1.9645448784772978E-03   1.9143062020216229E-03   1.8653426167331520E-03   1.8176230306503438E-03   1.7711170283475762E-03
   1.7257948607546278E-03   1.6816274348738140E-03   1.6385863034133576E-03   1.5966436543540694E-03   1.5557723004660177E-03
   1.5159456687903097E-03   1.4771377901007816E-03   1.4393232883592182E-03   1.4024773701768324E-03   1.3665758142942450E-03
   1.3315949610910155E-03   1.2975117021355011E-03   1.2643034697845618E-03   1.2319482268425717E-03   1.2004244562879320E-03
   1.1697111510751625E-03   1.1397878040196598E-03   1.1106343977719587E-03   1.0822313948875663E-03   1.0545597279979523E-03
   1.0276007900880111E-03   1.0013364248844447E-03   9.7574891735949286E-04   9.5082098435363463E-04   9.2653576532085522E-04
   9.0287681319931056E-04   8.7982808541019197E-04   8.5737393498710286E-04   8.3549910183786471E-04   8.1418870414059813E-04
   7.9342822987535084E-04   7.7320352849259255E-04   7.5350080271930871E-04   7.3430660050349654E-04   7.1560780709745489E-04
   6.9739163728011725E-04   6.7964562771845088E-04   6.6235762946784636E-04   6.4551580061115489E-04   6.2910859903588738E-04
   6.1312477534908078E-04   5.9755336592896293E-04   5.8238368611266669E-04   5.6760532351893018E-04   5.5320813150478874E-04
   5.3918222275499362E-04   5.2551796300295242E-04   5.1220596488184592E-04   4.9923708190444203E-04   4.8660240257020383E-04
   4.7429324459806401E-04   4.6230114928334445E-04   4.5061787597709788E-04   4.3923539668623324E-04   4.2814589079269980E-04
   4.1734173988992092E-04   4.0681552273476144E-04   3.9656001031315106E-04   3.8656816101760295E-04   3.7683311593470886E-04
   3.6734819424083428E-04   3.5810688870408300E-04   3.4910286129071161E-04   3.4032993887408004E-04   3.3178210904430936E-04
   3.2345351601674563E-04   3.1533845663736754E-04   3.0743137648331603E-04   2.9972686605664886E-04   2.9221965706952902E-04
   2.8490461881898357E-04   2.7777675464946540E-04   2.7083119850137937E-04   2.6406321154382752E-04   2.5746817888981275E-04
   2.5104160639213656E-04   2.4477911751830334E-04   2.3867645030270160E-04   2.3272945437441867E-04   2.2693408805899009E-04
   2.2128641555250648E-04   2.1578260416641094E-04   2.1041892164145516E-04   2.0519173352921734E-04   2.0009750063966489E-04
   1.9513277655325000E-04   1.9029420519604365E-04   1.8557851847645249E-04   1.8098253398209600E-04   1.7650315273541617E-04
   1.7213735700665205E-04   1.6788220818280840E-04   1.6373484469129083E-04   1.5969247997691112E-04   1.5575240053096264E-04
   1.5191196397112982E-04   1.4816859717097313E-04   1.4451979443781405E-04   1.4096311573782248E-04   1.3749618496713744E-04
   1.3411668826792102E-04   1.3082237238819653E-04   1.2761104308442028E-04   1.2448056356570105E-04   1.2142885297864379E-04
   1.1845388493178939E-04   1.1555368605866085E-04   1.1272633461845288E-04   1.0996995913340207E-04   1.0728273706191692E-04
   1.0466289350656288E-04   1.0210869995600308E-04   9.9618473060052659E-05   9.7190573436972544E-05   9.4823404512202146E-05
   9.2515411387712095E-05   9.0265079741186152E-05   8.8070934754275261E-05   8.5931540069169020E-05   8.3845496772742430E-05
   8.1811442407584762E-05   7.9828050009188870E-05   7.7894027168641872E-05   7.6008115120140235E-05   7.4169087852689696E-05
   7.2375751245353195E-05   7.0626942225432982E-05   6.8921527948991572E-05   6.7258405003117820E-05   6.5636498629375901E-05
   6.4054761967870426E-05   6.2512175321396209E-05   6.1007745439139636E-05   5.9540504819410039E-05   5.8109511030910394E-05
   5.6713846052050857E-05   5.5352615627825500E-05   5.4024948643795777E-05   5.2729996516722604E-05   5.1466932601402806E-05
   5.0234951613289898E-05   4.9033269066468260E-05   4.7861120726583266E-05   4.6717762078323251E-05   4.5602467807070758E-05
   4.4514531294341632E-05   4.3453264126647236E-05   4.2417995617424229E-05   4.1408072341679556E-05   4.0422857683015423E-05
   3.9461731392699010E-05   3.8524089160461396E-05   3.7609342196709952E-05   3.6716916825845432E-05   3.5846254090396024E-05
   3.4996809365669065E-05   3.4168051984647431E-05   3.3359464872852076E-05   3.2570544192905177E-05   3.1800798998535981E-05
   3.1049750897773479E-05   3.0316933725082186E-05   2.9601893222202427E-05   2.8904186727459348E-05   2.8223382873316951E-05
   2.7559061291953245E-05   2.6910812328643541E-05   2.6278236762743266E-05   2.5660945536064957E-05   2.5058559488453549E-05
   2.4470709100363512E-05   2.3897034242254850E-05   2.3337183930622588E-05   2.2790816090480953E-05   2.2257597324133363E-05
   2.1737202686054927E-05   2.1229315463727907E-05   2.0733626964268208E-05   2.0249836306688691E-05   1.9777650219648659E-05
   1.9316782844541700E-05   1.8866955543779266E-05   1.8427896714132213E-05   1.7999341604992843E-05   1.7581032141427737E-05
   1.7172716751891597E-05   1.6774150200477919E-05   1.6385093423586372E-05   1.6005313370886803E-05   1.5634582850467098E-05
   1.5272680378050390E-05   1.4919390030175882E-05   1.4574501301235911E-05   1.4237808964265058E-05   1.3909112935384440E-05
   1.3588218141799645E-05   1.3274934393260952E-05   1.2969076256891119E-05   1.2670462935292523E-05   1.2378918147844826E-05
   1.2094270015109006E-05   1.1816350946255143E-05   1.1544997529432838E-05   1.1280050425006141E-05   1.1021354261577184E-05
   1.0768757534723075E-05   1.0522112508375914E-05   1.0281275118773355E-05   1.0046104880913255E-05   9.8164647974452446E-06
   9.5922212699337033E-06   9.3732440124305751E-06   9.1594059672961651E-06   8.9505832232073360E-06   8.7466549352972172E-06
   8.5475032473674958E-06   8.3530132161204379E-06   8.1630727373559041E-06   7.9775724740820127E-06   7.7964057864883238E-06
   7.6194686637324539E-06   7.4466596574926622E-06   7.2778798172389473E-06   7.1130326271781321E-06   6.9520239448275937E-06
   6.7947619411759758E-06   6.6411570423883856E-06   6.4911218730148506E-06   6.3445712006635503E-06   6.2014218820995730E-06
   6.0615928107313931E-06   5.9250048654493241E-06   5.7915808607800633E-06   5.6612454983221560E-06   5.5339253194299926E-06
   5.4095486591121303E-06   5.2880456011132260E-06   5.1693479341478515E-06   5.0533891092563587E-06   4.9401041982531075E-06
   4.8294298532385182E-06   4.7213042671474036E-06   4.6156671353060453E-06   4.5124596179719973E-06   4.4116243038304565E-06
   4.3131051744227835E-06   4.2168475694826166E-06   4.1227981531554586E-06   4.0309048810796474E-06   3.9411169683051478E-06
   3.8533848580292855E-06   3.7676601911275950E-06   3.6838957764592201E-06   3.6020455619269225E-06   3.5220646062717123E-06
   3.4439090515832780E-06   3.3675360965076658E-06   3.2929039701339020E-06   3.2199719065422066E-06   3.1487001199963421E-06
   3.0790497807636343E-06   3.0109829915464187E-06   2.9444627645089647E-06   2.8794529988846256E-06   2.8159184591479340E-06
   2.7538247537374545E-06   2.6931383143149230E-06   2.6338263755467129E-06   2.5758569553945856E-06   2.5191988359020715E-06
   2.4638215444641624E-06   2.4096953355675931E-06   2.3567911729897866E-06   2.3050807124444844E-06   2.2545362846626848E-06
   2.2051308788977883E-06   2.1568381268439204E-06   2.1096322869568640E-06   2.0634882291673951E-06   2.0183814199767671E-06
   1.9742879079246942E-06   1.9311843094203244E-06   1.8890477949268042E-06   1.8478560754905423E-06   1.8075873896061247E-06
   1.7682204904086128E-06   1.7297346331847056E-06   1.6921095631945318E-06   1.6553255037964642E-06   1.6193631448668597E-06
   1.5842036315075529E-06   1.5498285530335466E-06   1.5162199322339440E-06   1.4833602148990193E-06   1.4512322596067733E-06
   1.4198193277623992E-06   1.3891050738841650E-06   1.3590735361295750E-06   1.3297091270555384E-06   1.3009966246068493E-06
   1.2729211633270766E-06   1.2454682257861734E-06   1.2186236342194906E-06   1.1923735423727802E-06   1.1667044275478857E-06
   1.1416030828442491E-06   1.1170566095911959E-06   1.0930524099661012E-06   1.0695781797939983E-06   1.0466219015237694E-06
   1.0241718373767362E-06   1.0022165226631412E-06   9.8074475926241931E-07   9.5974560926304381E-07   9.3920838875800606E-07
   9.1912266179205009E-07   8.9947823445678142E-07   8.8026514913004345E-07   8.6147367885581557E-07   8.4309432186127207E-07
   8.2511779620749588E-07   8.0753503457045163E-07   7.9033717914909321E-07   7.7351557669735677E-07   7.5706177367691766E-07
   7.4096751152778810E-07   7.2522472205378665E-07   7.0982552291994597E-07   6.9476221325923013E-07   6.8002726938566583E-07
   6.6561334061139413E-07   6.5151324516496772E-07   6.3771996620843422E-07   6.2422664795071548E-07   6.1102659185490978E-07
   5.9811325293722601E-07   5.8548023615522295E-07   5.7312129288320095E-07   5.6103031747252408E-07   5.4920134389484422E-07
   5.3762854246615731E-07   5.2630621664964033E-07   5.1522879993544214E-07   5.0439085279539713E-07   4.9378705971093138E-07
   4.8341222627229027E-07   4.7326127634735033E-07   4.6332924931832645E-07   4.5361129738466428E-07   4.4410268293052133E-07
   4.3479877595525602E-07   4.2569505156535691E-07   4.1678708752633207E-07   4.0807056187305835E-07   3.9954125057717727E-07
   3.9119502527015625E-07   3.8302785102062488E-07   3.7503578416468550E-07   3.6721497018787068E-07   3.5956164165752732E-07
   3.5207211620438312E-07   3.4474279455206084E-07   3.3757015859344469E-07   3.3055076951267849E-07   3.2368126595174663E-07
   3.1695836222052089E-07   3.1037884654923120E-07   3.0393957938231845E-07   2.9763749171266611E-07   2.9146958345524979E-07
   2.8543292185922561E-07   2.7952463995753236E-07   2.7374193505311489E-07   2.6808206724085354E-07   2.6254235796435669E-07
   2.5712018860677518E-07   2.5181299911480230E-07   2.4661828665507728E-07   2.4153360430217860E-07   2.3655655975748630E-07
   2.3168481409814416E-07   2.2691608055538872E-07   2.2224812332157277E-07   2.1767875638514979E-07   2.1320584239298392E-07
   2.0882729153930574E-07   2.0454106048068970E-07   2.0034515127641174E-07   1.9623761035359012E-07   1.9221652749651770E-07
